%YAML:1.0
---
opencv_ml_svm:
   format: 3
   svmType: C_SVC
   kernel:
      type: RBF
      gamma: 1.
   C: 1.
   term_criteria: { iterations:100 }
   var_count: 50
   class_count: 5
   class_labels: !!opencv-matrix
      rows: 5
      cols: 1
      dt: i
      data: [ 0, 1, 2, 3, 4 ]
   class_weights: !!opencv-matrix
      rows: 5
      cols: 1
      dt: f
      data: [ 1., 1., 1., 1., 1. ]
   sv_total: 471
   support_vectors:
      - [ 0.0227272715, 0.0272727273, 0.0045454544, 0.0272727273,
          0.0090909088, 0.0090909088, 0.0181818176, 0.0227272715,
          0.0454545431, 0.0227272715, 0.0454545431, 0.0227272715,
          0.0318181813, 0.0090909088, 0.0318181813, 0.0409090891,
          0.0181818176, 0.0045454544, 0.0045454544, 0.0136363637,
          0.0227272715, 0.0454545431, 0.0090909088, 0.0136363637,
          0.0181818176, 0.0272727273, 0.0227272715, 0.0090909088,
          0.0318181813, 0.0090909088, 0.0136363637, 0.0090909088, 0.,
          0.0090909088, 0.0090909088, 0.0318181813, 0.0227272715,
          0.0227272715, 0.0090909088, 0.0090909088, 0.0318181813,
          0.0227272715, 0.0227272715, 0.0272727273, 0.0136363637,
          0.0318181813, 0.0136363637, 0.0318181813, 0.0181818176,
          0.0090909088 ]
      - [ 0.00520833349, 0.0364583358, 0.015625, 0.010416667,
          0.020833334, 0.00520833349, 0.00520833349, 0.0260416679,
          0.020833334, 0.03125, 0.010416667, 0.020833334, 0.0520833358,
          0.010416667, 0.015625, 0.0364583358, 0.0260416679,
          0.00520833349, 0.020833334, 0.010416667, 0.020833334,
          0.0416666679, 0.020833334, 0.00520833349, 0.00520833349,
          0.0260416679, 0.0364583358, 0.010416667, 0.0260416679,
          0.015625, 0.010416667, 0.0364583358, 0.00520833349, 0.015625,
          0.00520833349, 0.015625, 0.015625, 0.03125, 0., 0.0364583358,
          0.046875, 0.020833334, 0.0364583358, 0.0364583358, 0.015625,
          0.010416667, 0.010416667, 0.0416666679, 0.00520833349,
          0.010416667 ]
      - [ 0.00392156886, 0.0156862754, 0.0313725509, 0.011764707,
          0.00784313772, 0.0196078438, 0.0196078438, 0.0156862754,
          0.0196078438, 0.0313725509, 0.00784313772, 0.0156862754,
          0.0313725509, 0.0156862754, 0.0313725509, 0.0313725509,
          0.0235294141, 0.0156862754, 0.011764707, 0.0509803966,
          0.00784313772, 0.00784313772, 0.0274509825, 0.00784313772,
          0.00784313772, 0.011764707, 0.0196078438, 0.0313725509,
          0.0235294141, 0., 0.011764707, 0.0313725509, 0.00784313772,
          0.0196078438, 0.00392156886, 0.0313725509, 0.0196078438,
          0.011764707, 0.00392156886, 0.0156862754, 0.0627451017,
          0.00392156886, 0.0235294141, 0.0352941193, 0.0156862754,
          0.0196078438, 0.011764707, 0.0588235334, 0.0352941193,
          0.0196078438 ]
      - [ 0.0093457941, 0.0186915882, 0.0186915882, 0.0093457941,
          0.0140186911, 0.0186915882, 0.0093457941, 0.0233644843,
          0.0233644843, 0.0233644843, 0.0093457941, 0.0233644843,
          0.0093457941, 0.0140186911, 0.0560747646, 0.0093457941,
          0.0093457941, 0.0420560725, 0.0140186911, 0.0280373823,
          0.0093457941, 0.0140186911, 0.0233644843, 0.00467289705,
          0.0093457941, 0.0280373823, 0.0467289686, 0.0280373823,
          0.0373831764, 0.00467289705, 0.0327102803, 0.0140186911,
          0.0186915882, 0.0467289686, 0.0093457941, 0.0186915882,
          0.0140186911, 0.0140186911, 0., 0.0093457941, 0.0233644843,
          0.0093457941, 0.0327102803, 0.0373831764, 0., 0.0140186911,
          0.0280373823, 0.0280373823, 0.0327102803, 0.0280373823 ]
      - [ 0.00473933667, 0.01421801, 0.0189573467, 0.01421801,
          0.00473933667, 0.00473933667, 0.02843602, 0.00473933667,
          0.0189573467, 0.0473933667, 0.01421801, 0.0189573467,
          0.02843602, 0.00947867334, 0.02843602, 0.02843602,
          0.0236966833, 0.00473933667, 0.0189573467, 0.02843602,
          0.0236966833, 0.02843602, 0.0189573467, 0.0189573467,
          0.01421801, 0.01421801, 0.0189573467, 0.01421801, 0.01421801,
          0.01421801, 0.0189573467, 0.01421801, 0.00947867334,
          0.0331753567, 0., 0.0379146934, 0.02843602, 0.0189573467,
          0.00473933667, 0.00947867334, 0.0331753567, 0.00947867334,
          0.0236966833, 0.0521327034, 0.0189573467, 0.0236966833,
          0.02843602, 0.0379146934, 0.0331753567, 0.0189573467 ]
      - [ 0.00917431153, 0.0229357779, 0.0229357779, 0.0229357779,
          0.0229357779, 0.0137614673, 0.0183486231, 0.0275229346,
          0.0183486231, 0.0275229346, 0.0183486231, 0.0183486231,
          0.0366972461, 0.00917431153, 0.0321100913, 0.0275229346,
          0.0229357779, 0.0229357779, 0.0137614673, 0.0183486231,
          0.0137614673, 0.0183486231, 0.0275229346, 0.0137614673,
          0.00917431153, 0.0275229346, 0.0229357779, 0.0229357779,
          0.00458715577, 0.0137614673, 0.0183486231, 0.00458715577,
          0.0275229346, 0.00458715577, 0.0229357779, 0.0275229346,
          0.00917431153, 0.0137614673, 0., 0.0137614673, 0.0504587144,
          0.0137614673, 0.0183486231, 0.0275229346, 0., 0.0229357779,
          0.0275229346, 0.0321100913, 0.0366972461, 0.0275229346 ]
      - [ 0.0127388537, 0.0191082805, 0.0127388537, 0.0127388537, 0.,
          0.0127388537, 0.082802549, 0.0191082805, 0.0191082805,
          0.0254777074, 0.0764331222, 0.00636942685, 0.0127388537,
          0.00636942685, 0.0318471342, 0.0318471342, 0.0318471342, 0.,
          0.0318471342, 0.0254777074, 0.0254777074, 0.0127388537,
          0.0191082805, 0.0127388537, 0.00636942685, 0., 0.0254777074,
          0.0254777074, 0.0127388537, 0.00636942685, 0.00636942685,
          0.0127388537, 0., 0.0254777074, 0., 0.0254777074, 0.0191082805,
          0.0254777074, 0.00636942685, 0.0318471342, 0.0445859879,
          0.00636942685, 0.0382165611, 0.0318471342, 0.00636942685,
          0.00636942685, 0.00636942685, 0.0382165611, 0.0254777074,
          0.0254777074 ]
      - [ 0.0149253728, 0.0149253728, 0.0149253728, 0.00497512426,
          0.00497512426, 0.00995024852, 0.0248756222, 0.00497512426,
          0.0298507456, 0.0248756222, 0.0348258689, 0.0248756222,
          0.0348258689, 0.0248756222, 0.0298507456, 0.0298507456,
          0.0149253728, 0.0149253728, 0.0149253728, 0.0298507456,
          0.0298507456, 0.0248756222, 0.019900497, 0.0298507456,
          0.00995024852, 0.00995024852, 0.00497512426, 0.019900497,
          0.0348258689, 0.00995024852, 0.00995024852, 0.0149253728,
          0.019900497, 0.0298507456, 0.00995024852, 0.0348258689,
          0.0348258689, 0.00497512426, 0., 0.0398009941, 0.0398009941,
          0.00995024852, 0.0248756222, 0.019900497, 0., 0.00995024852,
          0.019900497, 0.0398009941, 0.0298507456, 0.00995024852 ]
      - [ 0.00543478271, 0.027173914, 0.0108695654, 0.0108695654,
          0.0380434804, 0., 0.027173914, 0.0217391308, 0.0434782617,
          0.0108695654, 0.0326086953, 0.027173914, 0.0326086953, 0.,
          0.0326086953, 0.0217391308, 0.00543478271, 0.00543478271,
          0.0163043477, 0.0163043477, 0.0163043477, 0.0217391308,
          0.027173914, 0.0217391308, 0.0108695654, 0.0108695654,
          0.054347828, 0.0163043477, 0.0380434804, 0.027173914,
          0.0217391308, 0.0163043477, 0.00543478271, 0.0108695654,
          0.0108695654, 0.0326086953, 0.0163043477, 0.027173914, 0.,
          0.0163043477, 0.0434782617, 0.0108695654, 0.0217391308,
          0.0217391308, 0.00543478271, 0.0163043477, 0.00543478271,
          0.0434782617, 0.0326086953, 0.0108695654 ]
      - [ 0.0142857153, 0.0380952395, 0.00952380989, 0.00476190494,
          0.0238095243, 0.0285714306, 0.00476190494, 0.0142857153,
          0.0238095243, 0.0190476198, 0.0238095243, 0., 0.0333333351,
          0.00952380989, 0.0380952395, 0.0333333351, 0.00952380989,
          0.00952380989, 0.00952380989, 0.0190476198, 0., 0.0190476198,
          0.0238095243, 0.0190476198, 0.00476190494, 0.0190476198,
          0.0380952395, 0.0238095243, 0.0190476198, 0.0238095243,
          0.0238095243, 0.00476190494, 0.0238095243, 0.0190476198,
          0.0238095243, 0.0380952395, 0.042857144, 0.0380952395,
          0.00476190494, 0.00952380989, 0.052380953, 0.0142857153,
          0.0142857153, 0.0142857153, 0.00952380989, 0.0142857153,
          0.0142857153, 0.0333333351, 0.0333333351, 0.0142857153 ]
      - [ 0.0163934417, 0.00546448072, 0.0218579229, 0.0109289614,
          0.0218579229, 0.0163934417, 0.0109289614, 0.0218579229,
          0.00546448072, 0.0327868834, 0.0273224041, 0.0109289614,
          0.0218579229, 0.0109289614, 0.0327868834, 0.0273224041,
          0.0109289614, 0.0109289614, 0.0218579229, 0.0163934417,
          0.0163934417, 0.0273224041, 0.0218579229, 0.0163934417,
          0.00546448072, 0.0163934417, 0.0437158458, 0.0273224041,
          0.0163934417, 0.0109289614, 0.0109289614, 0.0218579229,
          0.0218579229, 0.0163934417, 0.0218579229, 0.0382513665,
          0.0273224041, 0.0273224041, 0.00546448072, 0.0327868834,
          0.0437158458, 0.00546448072, 0.0109289614, 0.0327868834, 0.,
          0.00546448072, 0.0327868834, 0.0327868834, 0.0327868834,
          0.0218579229 ]
      - [ 0.0797545984, 0.00613496918, 0., 0.00613496918, 0.,
          0.0122699384, 0., 0.0245398767, 0.0122699384, 0.0122699384,
          0.0245398767, 0.00613496918, 0.030674845, 0.0184049085,
          0.0184049085, 0.030674845, 0.0245398767, 0.00613496918, 0.,
          0.0184049085, 0.00613496918, 0.0490797535, 0.0122699384,
          0.0184049085, 0.0122699384, 0.0184049085, 0.0429447852,
          0.0122699384, 0.0122699384, 0.0429447852, 0.0184049085,
          0.036809817, 0.0184049085, 0.00613496918, 0.0184049085,
          0.0245398767, 0.0184049085, 0.036809817, 0.0429447852,
          0.00613496918, 0.030674845, 0.00613496918, 0.0184049085,
          0.030674845, 0.0184049085, 0., 0.00613496918, 0.036809817,
          0.0490797535, 0.0184049085 ]
      - [ 0.0336538479, 0.024038462, 0.00961538497, 0.00480769249,
          0.00480769249, 0.00961538497, 0.00961538497, 0.0288461559,
          0.0288461559, 0.0192307699, 0.0432692319, 0.00480769249,
          0.00480769249, 0.0144230779, 0.024038462, 0.0288461559,
          0.00961538497, 0.00480769249, 0.00961538497, 0.0192307699,
          0.0144230779, 0.0144230779, 0.0192307699, 0.024038462,
          0.00961538497, 0.0336538479, 0.0480769239, 0.0144230779,
          0.024038462, 0.024038462, 0.0144230779, 0., 0.024038462,
          0.00961538497, 0., 0.0192307699, 0.0336538479, 0.0480769239,
          0.0288461559, 0.0144230779, 0.024038462, 0.00961538497,
          0.0336538479, 0.0432692319, 0.0336538479, 0.024038462,
          0.0144230779, 0.0384615399, 0.0192307699, 0.00480769249 ]
      - [ 0.00636942685, 0.0254777074, 0.0254777074, 0.0127388537,
          0.0191082805, 0.00636942685, 0.0254777074, 0.0127388537,
          0.0127388537, 0.0191082805, 0.0254777074, 0.00636942685,
          0.0191082805, 0.0127388537, 0.0382165611, 0.0254777074,
          0.0254777074, 0., 0.0254777074, 0.0127388537, 0.00636942685,
          0.0318471342, 0.00636942685, 0.0382165611, 0., 0.0254777074,
          0.0509554148, 0.0191082805, 0.0509554148, 0.0254777074,
          0.0127388537, 0.0191082805, 0., 0.0382165611, 0.0382165611,
          0.0445859879, 0.0191082805, 0.00636942685, 0., 0.0318471342,
          0.0318471342, 0., 0.0254777074, 0.0445859879, 0., 0.,
          0.00636942685, 0.0191082805, 0.0445859879, 0.00636942685 ]
      - [ 0.0111111114, 0.0333333351, 0.0111111114, 0.0166666675,
          0.00555555569, 0., 0.0166666675, 0.0111111114, 0.0222222228,
          0.0388888903, 0.0777777806, 0.027777778, 0.0166666675,
          0.0111111114, 0.027777778, 0.0444444455, 0.027777778,
          0.00555555569, 0.0166666675, 0.0222222228, 0.0388888903,
          0.027777778, 0.0111111114, 0.0166666675, 0.0111111114,
          0.0166666675, 0., 0.00555555569, 0.0166666675, 0.0111111114,
          0.0111111114, 0., 0.027777778, 0.0222222228, 0.00555555569,
          0.0166666675, 0.055555556, 0.0111111114, 0.0166666675,
          0.0222222228, 0.0500000007, 0.00555555569, 0.027777778,
          0.0388888903, 0.00555555569, 0., 0.0111111114, 0.0500000007,
          0.0222222228, 0. ]
      - [ 0.0117647061, 0.0235294122, 0.0235294122, 0.00588235306,
          0.0176470596, 0., 0.0352941193, 0.0117647061, 0.0235294122,
          0.0294117648, 0.0411764719, 0.0176470596, 0.0176470596, 0.,
          0.0294117648, 0.0117647061, 0.0117647061, 0.0235294122,
          0.0176470596, 0.0411764719, 0.0176470596, 0.0235294122,
          0.0176470596, 0.0176470596, 0., 0.0352941193, 0.0176470596,
          0.0235294122, 0.0176470596, 0.0235294122, 0.0176470596,
          0.00588235306, 0.0176470596, 0.0294117648, 0.0176470596,
          0.0117647061, 0.0235294122, 0.0294117648, 0., 0.0294117648,
          0.052941177, 0.0176470596, 0.0294117648, 0.0235294122,
          0.00588235306, 0.0235294122, 0.0117647061, 0.0352941193,
          0.0176470596, 0.0117647061 ]
      - [ 0.00617283955, 0.00617283955, 0.0123456791, 0.0123456791,
          0.0123456791, 0.0246913582, 0.0432098769, 0.0308641978,
          0.0123456791, 0.0185185187, 0.0370370373, 0.00617283955,
          0.0185185187, 0.00617283955, 0.055555556, 0.0246913582,
          0.0246913582, 0.00617283955, 0.0308641978, 0.0246913582,
          0.0123456791, 0.0308641978, 0.0123456791, 0.0432098769, 0.,
          0.0246913582, 0.0185185187, 0.0185185187, 0.00617283955,
          0.0246913582, 0.0123456791, 0.0123456791, 0.0185185187,
          0.00617283955, 0., 0.0432098769, 0.0308641978, 0.0185185187,
          0., 0.0308641978, 0.0493827164, 0.0185185187, 0.0185185187,
          0.0308641978, 0., 0.0185185187, 0.0123456791, 0.0432098769,
          0.0185185187, 0.0123456791 ]
      - [ 0.00625000009, 0.0250000004, 0.0187500007, 0.00625000009,
          0.00625000009, 0.0250000004, 0.075000003, 0.0125000002,
          0.0187500007, 0.03125, 0.0250000004, 0., 0.0125000002,
          0.00625000009, 0.0187500007, 0.0500000007, 0.0125000002,
          0.00625000009, 0.0250000004, 0.0187500007, 0.0125000002,
          0.0250000004, 0.00625000009, 0.0250000004, 0.0125000002,
          0.03125, 0.0437499993, 0., 0.0375000015, 0., 0.0125000002,
          0.0125000002, 0.0125000002, 0.0187500007, 0.00625000009,
          0.0250000004, 0.0500000007, 0.0250000004, 0.0375000015,
          0.00625000009, 0.0500000007, 0.0187500007, 0.0187500007,
          0.03125, 0., 0.0125000002, 0., 0.0250000004, 0.0187500007,
          0.0250000004 ]
      - [ 0.0158730149, 0., 0.00529100513, 0.0317460299, 0.,
          0.0158730149, 0.00529100513, 0.0211640205, 0.0476190448,
          0.042328041, 0.0211640205, 0.0158730149, 0.0370370373,
          0.0264550261, 0.0317460299, 0.0317460299, 0.00529100513,
          0.0158730149, 0., 0.0370370373, 0.00529100513, 0.0211640205,
          0.00529100513, 0.00529100513, 0.0264550261, 0.0105820103,
          0.042328041, 0.0264550261, 0.0211640205, 0., 0.0211640205,
          0.0264550261, 0.0105820103, 0.0317460299, 0., 0.0105820103,
          0.0370370373, 0.0264550261, 0.0211640205, 0.0158730149,
          0.0370370373, 0.0105820103, 0.042328041, 0.0317460299,
          0.0158730149, 0.0211640205, 0.0105820103, 0.0158730149,
          0.0158730149, 0.0264550261 ]
      - [ 0.00836820062, 0.0125523005, 0.0125523005, 0.0125523005,
          0.020920502, 0.0167364012, 0.020920502, 0., 0.0167364012,
          0.0376569033, 0.0502092019, 0.00836820062, 0.020920502,
          0.0125523005, 0.0502092019, 0.041841004, 0.0292887017,
          0.00836820062, 0.00836820062, 0.0167364012, 0.0125523005,
          0.0292887017, 0.020920502, 0.0125523005, 0.020920502,
          0.0292887017, 0.0167364012, 0.0167364012, 0.0167364012,
          0.00836820062, 0.0334728025, 0.020920502, 0.0292887017,
          0.0251046009, 0.020920502, 0.0292887017, 0.020920502,
          0.0292887017, 0., 0., 0.0334728025, 0.00418410031, 0.020920502,
          0.0334728025, 0.0125523005, 0.0167364012, 0.00418410031,
          0.0251046009, 0.0292887017, 0.020920502 ]
      - [ 0.0340909101, 0.0113636367, 0.0227272734, 0.0113636367,
          0.00568181835, 0.00568181835, 0.0170454551, 0.0227272734,
          0.0340909101, 0.0170454551, 0.0113636367, 0.0113636367,
          0.0113636367, 0.0227272734, 0.0227272734, 0.0284090918,
          0.0113636367, 0.0284090918, 0.00568181835, 0.0227272734,
          0.00568181835, 0.0227272734, 0.0284090918, 0.0454545468,
          0.0170454551, 0.0284090918, 0.0568181835, 0.0284090918, 0.,
          0.0170454551, 0.0284090918, 0.0113636367, 0.0227272734,
          0.0113636367, 0.00568181835, 0.0227272734, 0.0113636367,
          0.0170454551, 0.0113636367, 0.0227272734, 0.0340909101,
          0.0113636367, 0.0284090918, 0.0568181835, 0.0113636367,
          0.0113636367, 0.0113636367, 0.0227272734, 0.0227272734,
          0.0170454551 ]
      - [ 0.0124223605, 0.0310559012, 0.024844721, 0.0186335407, 0.,
          0.0186335407, 0.0186335407, 0.00621118024, 0.0186335407,
          0.0372670814, 0.024844721, 0.00621118024, 0.0310559012,
          0.024844721, 0.0124223605, 0.0372670814, 0., 0.0124223605,
          0.0186335407, 0.0186335407, 0.0434782617, 0.024844721,
          0.0186335407, 0.0372670814, 0.024844721, 0.0186335407,
          0.0124223605, 0.00621118024, 0.024844721, 0., 0.024844721,
          0.00621118024, 0.00621118024, 0.0310559012, 0.0124223605,
          0.0186335407, 0.0310559012, 0.0186335407, 0.0124223605,
          0.0310559012, 0.0683229864, 0.00621118024, 0.0310559012,
          0.0186335407, 0., 0., 0.0124223605, 0.0496894419, 0.024844721,
          0.0124223605 ]
      - [ 0.0165745858, 0.0220994484, 0.0110497242, 0.00552486209,
          0.00552486209, 0.0386740342, 0.0386740342, 0.0165745858,
          0.0165745858, 0.0165745858, 0.0607734844, 0.0110497242,
          0.0110497242, 0.0220994484, 0.0331491716, 0.0331491716,
          0.0276243109, 0.00552486209, 0.0220994484, 0.0220994484,
          0.0331491716, 0.0220994484, 0.00552486209, 0.00552486209,
          0.0110497242, 0., 0.0110497242, 0.00552486209, 0.0220994484,
          0.0110497242, 0.0165745858, 0.00552486209, 0.0165745858,
          0.0331491716, 0., 0.0386740342, 0.0386740342, 0.0220994484,
          0.0220994484, 0.0165745858, 0.0552486219, 0.00552486209,
          0.0165745858, 0.0331491716, 0.00552486209, 0.0165745858, 0.,
          0.0441988967, 0.0276243109, 0.0220994484 ]
      - [ 0.0105820103, 0.0158730149, 0.00529100513, 0.0158730149, 0.,
          0.0264550261, 0.0264550261, 0.0105820103, 0.0211640205,
          0.0105820103, 0.0529100522, 0.0158730149, 0.0158730149,
          0.0158730149, 0.0264550261, 0.0317460299, 0., 0.00529100513,
          0.0158730149, 0.0158730149, 0.00529100513, 0.0105820103,
          0.0105820103, 0.0211640205, 0.0158730149, 0.0264550261,
          0.0476190448, 0.0211640205, 0.0264550261, 0.0158730149,
          0.00529100513, 0.0158730149, 0.0158730149, 0.0105820103,
          0.0105820103, 0.042328041, 0.042328041, 0.0211640205,
          0.00529100513, 0.0317460299, 0.0370370373, 0.0158730149,
          0.0264550261, 0.0370370373, 0., 0.0211640205, 0.0211640205,
          0.0370370373, 0.0317460299, 0.0317460299 ]
      - [ 0.0114503819, 0.0190839693, 0.0190839693, 0.0152671756,
          0.00763358781, 0.0190839693, 0.00763358781, 0.00763358781,
          0.0267175566, 0.0305343512, 0.0190839693, 0.0190839693,
          0.0152671756, 0.0190839693, 0.0305343512, 0.0114503819,
          0.034351144, 0.00763358781, 0.0152671756, 0.0229007639,
          0.00763358781, 0.0305343512, 0.0267175566, 0., 0.0229007639,
          0.0305343512, 0.0381679386, 0.0305343512, 0.0190839693,
          0.034351144, 0.0458015278, 0.0229007639, 0.0267175566,
          0.0229007639, 0.0190839693, 0.0152671756, 0.0381679386,
          0.034351144, 0.00381679391, 0.0190839693, 0.0419847332,
          0.00381679391, 0.0190839693, 0.0152671756, 0., 0.0229007639,
          0.0114503819, 0.0267175566, 0.00763358781, 0.00381679391 ]
      - [ 0.00733496342, 0.0122249397, 0.0122249397, 0.0122249397,
          0.017114915, 0.0195599031, 0.0220048912, 0.0146699268,
          0.0244498793, 0.0195599031, 0.0146699268, 0.0244498793,
          0.0464547686, 0.0195599031, 0.0146699268, 0.0268948674,
          0.0244498793, 0.0195599031, 0.00977995154, 0.0244498793,
          0.0244498793, 0.0391198061, 0.0122249397, 0.017114915,
          0.0146699268, 0.0366748199, 0.00488997577, 0.00977995154,
          0.0293398537, 0.017114915, 0.0220048912, 0.0317848437,
          0.0293398537, 0.0195599031, 0.0342298299, 0.00244498788,
          0.0122249397, 0.0342298299, 0., 0.0122249397, 0.0415647924,
          0.00733496342, 0.0293398537, 0.0195599031, 0.0122249397,
          0.0146699268, 0.0146699268, 0.0415647924, 0.0122249397,
          0.017114915 ]
      - [ 0.00613496918, 0.0245398767, 0.0184049085, 0.0184049085, 0.,
          0.0184049085, 0.0122699384, 0.0920245349, 0.0429447852,
          0.0184049085, 0.0184049085, 0.0184049085, 0.00613496918, 0.,
          0.030674845, 0.0184049085, 0.0122699384, 0.0184049085,
          0.0122699384, 0.036809817, 0.0184049085, 0.0122699384,
          0.0245398767, 0., 0.0245398767, 0.00613496918, 0.0429447852,
          0.0184049085, 0.036809817, 0.0245398767, 0., 0.0122699384,
          0.00613496918, 0.0552147217, 0.00613496918, 0.0122699384,
          0.0122699384, 0.030674845, 0.0245398767, 0., 0.0184049085, 0.,
          0.0245398767, 0.0245398767, 0.036809817, 0.036809817,
          0.00613496918, 0.036809817, 0.0122699384, 0.0122699384 ]
      - [ 0.0175438598, 0.0292397663, 0.0116959065, 0.023391813,
          0.0116959065, 0.0116959065, 0.0116959065, 0.0292397663,
          0.023391813, 0.00584795326, 0.00584795326, 0.0175438598,
          0.0116959065, 0.0175438598, 0.0175438598, 0.0292397663,
          0.0292397663, 0.00584795326, 0.00584795326, 0.0292397663,
          0.023391813, 0.023391813, 0.0116959065, 0.00584795326,
          0.00584795326, 0.0175438598, 0.0467836261, 0.0175438598,
          0.0175438598, 0.0116959065, 0.00584795326, 0.0292397663,
          0.0175438598, 0.0409356728, 0.0116959065, 0.0175438598,
          0.0116959065, 0.0175438598, 0.0350877196, 0.0467836261,
          0.0350877196, 0.00584795326, 0.0350877196, 0.0292397663,
          0.0116959065, 0.0175438598, 0.00584795326, 0.0350877196,
          0.0467836261, 0.0175438598 ]
      - [ 0., 0.0194552522, 0.0155642023, 0.0311284047, 0.0155642023,
          0.0272373538, 0.00389105058, 0.0389105044, 0.0428015552,
          0.0155642023, 0.00778210117, 0.00778210117, 0., 0.0194552522,
          0.0272373538, 0.00389105058, 0.0194552522, 0.0155642023,
          0.0155642023, 0.0389105044, 0.0194552522, 0.0116731515,
          0.0194552522, 0.00389105058, 0.00778210117, 0.0311284047,
          0.0194552522, 0.0466926061, 0.0155642023, 0.00778210117,
          0.0272373538, 0.0272373538, 0.0428015552, 0.0272373538,
          0.0389105044, 0.0116731515, 0.0116731515, 0.0155642023,
          0.00389105058, 0.00778210117, 0.0272373538, 0.00389105058,
          0.0272373538, 0.023346303, 0.0116731515, 0.0116731515,
          0.0311284047, 0.0272373538, 0.0272373538, 0.0466926061 ]
      - [ 0.00842696615, 0.0308988765, 0.0252808984, 0.0140449442,
          0.0140449442, 0.0112359552, 0.00842696615, 0.0449438207,
          0.0168539323, 0.0168539323, 0.0140449442, 0.0140449442,
          0.0112359552, 0.0280898884, 0.0224719103, 0.0280898884,
          0.00561797759, 0.0112359552, 0.0365168527, 0.0112359552,
          0.0224719103, 0.0308988765, 0.0421348326, 0.00842696615,
          0.0196629222, 0.0168539323, 0.0421348326, 0.0365168527,
          0.0224719103, 0.00842696615, 0.0224719103, 0.0112359552,
          0.0252808984, 0.0196629222, 0.0112359552, 0.0140449442,
          0.0224719103, 0.0365168527, 0.00280898879, 0.0168539323,
          0.0280898884, 0.0140449442, 0.0168539323, 0.0224719103,
          0.00280898879, 0.0168539323, 0.0252808984, 0.0337078646,
          0.0252808984, 0.00842696615 ]
      - [ 0.0198412705, 0.0158730168, 0.0198412705, 0.0119047631,
          0.0277777798, 0.0277777798, 0.00793650839, 0.0119047631,
          0.0158730168, 0.0158730168, 0.00793650839, 0.0119047631,
          0.0119047631, 0.0119047631, 0.0198412705, 0.0238095261, 0.,
          0.0158730168, 0.00793650839, 0.0436507948, 0.0119047631,
          0.0039682542, 0.0238095261, 0.0158730168, 0.0198412705,
          0.039682541, 0.0317460336, 0.0277777798, 0.0198412705,
          0.0198412705, 0.0317460336, 0.0238095261, 0.0436507948,
          0.0317460336, 0.0317460336, 0.0119047631, 0.0119047631,
          0.039682541, 0.0119047631, 0.0039682542, 0.0357142873,
          0.00793650839, 0.0198412705, 0.0357142873, 0.0238095261,
          0.0158730168, 0.0198412705, 0.0238095261, 0.00793650839,
          0.0238095261 ]
      - [ 0.0037313432, 0.0223880596, 0.0186567158, 0.0186567158,
          0.00746268639, 0.0149253728, 0.0111940298, 0.0261194017,
          0.0522388034, 0.0410447754, 0.0037313432, 0.0111940298,
          0.0111940298, 0.0223880596, 0.0261194017, 0.0037313432,
          0.0335820876, 0.0186567158, 0.0298507456, 0.0373134315,
          0.0298507456, 0.0111940298, 0.0261194017, 0.0261194017, 0.,
          0.0223880596, 0.0111940298, 0.0186567158, 0.0149253728,
          0.0447761193, 0.0373134315, 0.0335820876, 0.0149253728,
          0.0298507456, 0.0223880596, 0.0410447754, 0.0223880596,
          0.0111940298, 0.0037313432, 0.0111940298, 0.0261194017,
          0.00746268639, 0.0261194017, 0.00746268639, 0.0149253728,
          0.0186567158, 0.0111940298, 0.0186567158, 0.0149253728,
          0.00746268639 ]
      - [ 0.0223880596, 0.0174129345, 0.0149253728, 0.0149253728,
          0.027363183, 0.0174129345, 0.0149253728, 0.0621890537,
          0.019900497, 0.0248756222, 0.0174129345, 0.00746268639,
          0.0248756222, 0.0149253728, 0.0248756222, 0.0124378111,
          0.00497512426, 0.0174129345, 0.019900497, 0.0248756222,
          0.00497512426, 0.00746268639, 0.027363183, 0.027363183,
          0.0298507456, 0.0298507456, 0.0124378111, 0.027363183,
          0.0248756222, 0.0174129345, 0.0323383063, 0.0248756222,
          0.0223880596, 0.00995024852, 0.0348258689, 0.027363183,
          0.019900497, 0.0223880596, 0.0149253728, 0.0149253728,
          0.0124378111, 0.0223880596, 0.0174129345, 0.0149253728,
          0.0124378111, 0.00746268639, 0.0124378111, 0.019900497,
          0.0174129345, 0.0248756222 ]
      - [ 0., 0.0118110236, 0.0236220472, 0.0236220472, 0.0196850393,
          0.027559055, 0.00787401572, 0.0314960629, 0.0433070883,
          0.00787401572, 0.00787401572, 0.0157480314, 0.0118110236,
          0.0196850393, 0.0236220472, 0.0236220472, 0.0118110236,
          0.027559055, 0.0196850393, 0.0196850393, 0.0157480314,
          0.0118110236, 0.0393700786, 0.00787401572, 0.00787401572,
          0.0472440943, 0.027559055, 0.0236220472, 0.0236220472,
          0.0118110236, 0.027559055, 0.0433070883, 0.0354330689,
          0.027559055, 0.0629921257, 0.0157480314, 0.0236220472,
          0.0157480314, 0.00787401572, 0., 0.0157480314, 0.0157480314,
          0.0157480314, 0.0118110236, 0.0196850393, 0.0236220472,
          0.0118110236, 0.0196850393, 0., 0.0118110236 ]
      - [ 0.00847457629, 0.0148305083, 0.0296610165, 0.0105932206,
          0.0635593235, 0.00635593198, 0.0211864412, 0.0360169485,
          0.0211864412, 0.0233050846, 0.0338983051, 0.0105932206,
          0.0635593235, 0.0190677959, 0.00635593198, 0.0211864412,
          0.040254239, 0.0169491526, 0.0275423732, 0.012711864,
          0.00211864407, 0.0296610165, 0.00423728814, 0.0233050846,
          0.00635593198, 0.0296610165, 0.0169491526, 0.00847457629,
          0.00635593198, 0.0317796618, 0.00635593198, 0.0317796618,
          0.00847457629, 0.0169491526, 0.0466101691, 0.0254237279,
          0.0233050846, 0.0169491526, 0.0148305083, 0.00847457629,
          0.0254237279, 0.012711864, 0.0148305083, 0.0105932206,
          0.0148305083, 0.0105932206, 0.0317796618, 0.0211864412,
          0.00847457629, 0.00423728814 ]
      - [ 0.0181818176, 0.0181818176, 0.00606060587, 0.0181818176, 0.,
          0.0121212117, 0., 0.0121212117, 0.0121212117, 0.0181818176,
          0.0181818176, 0.0121212117, 0.0666666627, 0.0121212117,
          0.0363636352, 0.0363636352, 0.00606060587, 0.0303030293,
          0.0181818176, 0.0181818176, 0.00606060587, 0.0424242392,
          0.00606060587, 0.0121212117, 0.0181818176, 0.0121212117,
          0.0303030293, 0.0181818176, 0.0242424235, 0.0363636352,
          0.00606060587, 0., 0.0121212117, 0.0242424235, 0.0181818176,
          0.0545454547, 0.0181818176, 0.0242424235, 0.00606060587,
          0.0181818176, 0.0484848469, 0.0303030293, 0.0303030293,
          0.00606060587, 0., 0.0181818176, 0.0303030293, 0.0181818176,
          0.0484848469, 0.0121212117 ]
      - [ 0.0189873427, 0.00632911408, 0.0126582282, 0.00632911408, 0.,
          0.0189873427, 0.0443037972, 0.03164557, 0.00632911408,
          0.0126582282, 0.03164557, 0.0126582282, 0.0443037972,
          0.0189873427, 0.0506329127, 0.0253164563, 0.0443037972,
          0.00632911408, 0.0379746854, 0.0126582282, 0., 0.0189873427,
          0.0189873427, 0., 0., 0.0189873427, 0.0253164563, 0.0253164563,
          0.0189873427, 0.0253164563, 0.0189873427, 0.0253164563,
          0.0189873427, 0.0253164563, 0.03164557, 0.0443037972,
          0.0189873427, 0.0126582282, 0., 0.00632911408, 0.03164557,
          0.0189873427, 0.0253164563, 0.03164557, 0.00632911408,
          0.0126582282, 0.0126582282, 0.0253164563, 0.0253164563,
          0.0126582282 ]
      - [ 0.0142857153, 0.0190476198, 0.0142857153, 0.00476190494, 0.,
          0.00952380989, 0.0285714306, 0., 0.00476190494, 0.0142857153,
          0.042857144, 0.0285714306, 0.042857144, 0.00952380989,
          0.0238095243, 0.0190476198, 0.042857144, 0.0190476198,
          0.0190476198, 0.0238095243, 0.0142857153, 0.0571428612,
          0.0190476198, 0.00476190494, 0.00476190494, 0.0333333351,
          0.0190476198, 0.0142857153, 0.00952380989, 0.0190476198,
          0.00952380989, 0.0142857153, 0.0333333351, 0.00952380989,
          0.0285714306, 0.0380952395, 0.0190476198, 0.0142857153,
          0.0190476198, 0.0190476198, 0.0380952395, 0.0190476198,
          0.0142857153, 0.0190476198, 0.0142857153, 0.0333333351,
          0.0238095243, 0.0380952395, 0.00952380989, 0.00952380989 ]
      - [ 0., 0.0174418613, 0.0174418613, 0.0116279069, 0., 0.0290697664,
          0.0174418613, 0.0232558139, 0.0232558139, 0.0290697664,
          0.0290697664, 0.0290697664, 0., 0.0116279069, 0.0232558139,
          0.0406976752, 0., 0.0174418613, 0.0232558139, 0.0523255803,
          0.00581395347, 0.00581395347, 0.0348837227, 0., 0.00581395347,
          0.00581395347, 0.0465116277, 0.0174418613, 0.0348837227, 0.,
          0.0232558139, 0., 0.00581395347, 0.0232558139, 0.00581395347,
          0.0348837227, 0.0755813941, 0.0290697664, 0.0116279069,
          0.0523255803, 0.0116279069, 0., 0.0406976752, 0.0174418613,
          0.00581395347, 0.0174418613, 0.0465116277, 0.0116279069,
          0.0232558139, 0.0116279069 ]
      - [ 0.0105820103, 0.0105820103, 0.0211640205, 0.00529100513,
          0.0105820103, 0.0264550261, 0.0158730149, 0.0211640205,
          0.0370370373, 0.0370370373, 0.0370370373, 0.0158730149,
          0.0158730149, 0.0158730149, 0.0317460299, 0.0158730149,
          0.0105820103, 0.0158730149, 0.0211640205, 0.0158730149,
          0.0370370373, 0.0211640205, 0.00529100513, 0.0105820103, 0.,
          0.0264550261, 0.0529100522, 0.0158730149, 0.0211640205, 0.,
          0.00529100513, 0.0264550261, 0.00529100513, 0.0211640205, 0.,
          0.0158730149, 0.0211640205, 0.0370370373, 0.0105820103,
          0.0317460299, 0.0529100522, 0.00529100513, 0.0264550261,
          0.0370370373, 0.00529100513, 0.00529100513, 0.0317460299,
          0.0476190448, 0.0158730149, 0.0158730149 ]
      - [ 0.0164835174, 0.0274725277, 0.0164835174, 0.00549450563, 0.,
          0.00549450563, 0.00549450563, 0.0219780225, 0.0219780225,
          0.0219780225, 0.0604395606, 0.0164835174, 0.00549450563,
          0.0274725277, 0.0219780225, 0.0329670347, 0., 0.0219780225,
          0.0164835174, 0.0219780225, 0.0109890113, 0.0219780225,
          0.0164835174, 0.0109890113, 0.0164835174, 0.0164835174,
          0.0769230798, 0.0164835174, 0.00549450563, 0., 0.0219780225,
          0.0219780225, 0.0109890113, 0.0329670347, 0., 0.00549450563,
          0.0274725277, 0.0219780225, 0.0384615399, 0.0164835174,
          0.0494505502, 0.00549450563, 0.0219780225, 0.0274725277,
          0.0164835174, 0.0274725277, 0.0109890113, 0.0494505502,
          0.0219780225, 0.0109890113 ]
      - [ 0.0212765951, 0.0159574468, 0.00531914877, 0.0159574468,
          0.0106382975, 0.00531914877, 0.0106382975, 0.0478723384,
          0.0159574468, 0.0106382975, 0.0106382975, 0.0319148935,
          0.0159574468, 0.0265957434, 0.0212765951, 0.0319148935,
          0.0106382975, 0.0159574468, 0.0106382975, 0.0319148935,
          0.0265957434, 0.0319148935, 0.0265957434, 0.00531914877,
          0.0159574468, 0.0265957434, 0.058510635, 0.0425531901,
          0.0319148935, 0.00531914877, 0.0212765951, 0.0212765951,
          0.0212765951, 0.0319148935, 0.0106382975, 0.0159574468,
          0.0212765951, 0.0212765951, 0.00531914877, 0.0106382975,
          0.0319148935, 0.0319148935, 0.0106382975, 0.00531914877,
          0.0106382975, 0.0159574468, 0.0212765951, 0.0265957434,
          0.0159574468, 0.0106382975 ]
      - [ 0.0193236712, 0.00966183562, 0.00966183562, 0., 0.0193236712,
          0.0193236712, 0.0144927539, 0.0434782617, 0.0144927539,
          0.0338164233, 0.0193236712, 0.00966183562, 0.0241545886,
          0.0193236712, 0.0241545886, 0.0241545886, 0.00966183562,
          0.0193236712, 0.0144927539, 0.0144927539, 0., 0.0289855078,
          0.00483091781, 0., 0.00483091781, 0.0386473425, 0.0483091772,
          0.0289855078, 0.0434782617, 0.0144927539, 0.0193236712,
          0.00966183562, 0.0241545886, 0.0241545886, 0.0338164233,
          0.0241545886, 0.0289855078, 0.0434782617, 0.0144927539,
          0.00966183562, 0.0483091772, 0., 0.0193236712, 0.00966183562,
          0.00483091781, 0., 0.00483091781, 0.0483091772, 0.0386473425,
          0.0193236712 ]
      - [ 0.0147783253, 0.0295566507, 0.0147783253, 0.0344827585,
          0.00985221658, 0.024630541, 0., 0.0147783253, 0.0197044332,
          0.024630541, 0.00985221658, 0.00985221658, 0.0344827585,
          0.0197044332, 0.0344827585, 0.024630541, 0.00985221658,
          0.00492610829, 0.024630541, 0.0541871898, 0.00492610829,
          0.0295566507, 0.024630541, 0., 0.0197044332, 0.00492610829,
          0.0295566507, 0.0147783253, 0.024630541, 0.0147783253,
          0.0147783253, 0.0197044332, 0.00985221658, 0.0197044332,
          0.0344827585, 0.0344827585, 0.0147783253, 0.00985221658,
          0.00985221658, 0.0147783253, 0.0295566507, 0.00492610829,
          0.024630541, 0.0295566507, 0.00985221658, 0.00985221658,
          0.024630541, 0.0344827585, 0.0443349741, 0.024630541 ]
      - [ 0.0116279069, 0.0174418613, 0.00581395347, 0.0116279069, 0.,
          0.0174418613, 0.00581395347, 0.0290697664, 0.0232558139,
          0.0348837227, 0., 0.0174418613, 0.0348837227, 0.0116279069,
          0.0697674453, 0.0232558139, 0.00581395347, 0.0232558139,
          0.0174418613, 0.0406976752, 0.0116279069, 0.0174418613,
          0.0116279069, 0.0116279069, 0.00581395347, 0.0116279069,
          0.0290697664, 0.0523255803, 0.0232558139, 0.00581395347,
          0.0116279069, 0.00581395347, 0.0174418613, 0.0232558139,
          0.0348837227, 0.0581395328, 0.00581395347, 0.0290697664,
          0.0116279069, 0.0232558139, 0.0290697664, 0., 0.0290697664,
          0.0290697664, 0., 0.0232558139, 0.00581395347, 0.0232558139,
          0.0465116277, 0.0116279069 ]
      - [ 0.0120481923, 0.0180722885, 0.0301204808, 0.0180722885,
          0.0180722885, 0.0301204808, 0.0240963846, 0.0240963846,
          0.0180722885, 0.0180722885, 0.0301204808, 0., 0.0240963846, 0.,
          0.0240963846, 0.0240963846, 0.0120481923, 0., 0.0240963846,
          0.0542168655, 0.0240963846, 0.0301204808, 0.036144577,
          0.0180722885, 0.00602409616, 0.00602409616, 0.0662650615,
          0.0240963846, 0.0301204808, 0.0240963846, 0.0120481923, 0.,
          0.0180722885, 0.00602409616, 0.0180722885, 0.036144577,
          0.0120481923, 0.0240963846, 0.0120481923, 0.0301204808,
          0.0180722885, 0., 0.0120481923, 0.0180722885, 0.00602409616,
          0.0120481923, 0.0180722885, 0.0180722885, 0.0481927693,
          0.0120481923 ]
      - [ 0.0158730149, 0.0158730149, 0.0158730149, 0.00529100513,
          0.0264550261, 0.0317460299, 0., 0.0105820103, 0.0158730149,
          0.0211640205, 0.0211640205, 0.0105820103, 0.0105820103,
          0.0105820103, 0.0370370373, 0.0158730149, 0.0211640205, 0.,
          0.0158730149, 0.0317460299, 0.0105820103, 0.0264550261,
          0.0158730149, 0., 0.0105820103, 0.0370370373, 0.0105820103,
          0.0264550261, 0.00529100513, 0.0158730149, 0.0529100522,
          0.042328041, 0.042328041, 0.042328041, 0.0264550261,
          0.0158730149, 0.0158730149, 0.0211640205, 0.0370370373, 0.,
          0.0158730149, 0.00529100513, 0.0264550261, 0.0476190448,
          0.0105820103, 0.00529100513, 0.0370370373, 0.0370370373,
          0.0264550261, 0. ]
      - [ 0., 0.0240963846, 0.00602409616, 0.0120481923, 0.036144577,
          0.00602409616, 0., 0.00602409616, 0.00602409616, 0.0180722885,
          0.0301204808, 0.00602409616, 0.0421686731, 0., 0.0421686731,
          0.0301204808, 0.036144577, 0.0180722885, 0.0180722885,
          0.0120481923, 0.00602409616, 0.036144577, 0.0301204808,
          0.0180722885, 0.00602409616, 0.0240963846, 0.0240963846,
          0.00602409616, 0., 0.0180722885, 0.036144577, 0.0240963846,
          0.00602409616, 0.036144577, 0.036144577, 0.0542168655,
          0.036144577, 0.036144577, 0.00602409616, 0.0120481923,
          0.0240963846, 0.0180722885, 0.036144577, 0.0481927693,
          0.0120481923, 0., 0.00602409616, 0.00602409616, 0.0240963846,
          0.0240963846 ]
      - [ 0.0598802418, 0.0179640725, 0.0119760484, 0.0119760484,
          0.0179640725, 0.00598802418, 0.00598802418, 0.0239520967,
          0.0419161692, 0.00598802418, 0.0239520967, 0.00598802418,
          0.0179640725, 0.00598802418, 0.0479041934, 0.0119760484,
          0.0419161692, 0.00598802418, 0.00598802418, 0.0419161692,
          0.0179640725, 0.0119760484, 0.0119760484, 0.00598802418,
          0.0179640725, 0.0299401209, 0.0479041934, 0.0179640725,
          0.0299401209, 0.00598802418, 0.0479041934, 0.0119760484,
          0.0119760484, 0.00598802418, 0.0359281451, 0.0479041934,
          0.0179640725, 0.0239520967, 0.0119760484, 0.0299401209,
          0.0119760484, 0.0119760484, 0.0179640725, 0.0299401209,
          0.0119760484, 0., 0., 0.0179640725, 0.0179640725, 0.0239520967 ]
      - [ 0.00996677764, 0.00664451811, 0.0166112948, 0., 0.0830564797,
          0., 0., 0.0265780725, 0.0199335553, 0.00996677764,
          0.00664451811, 0.0132890362, 0.0465116277, 0.0199335553,
          0.00664451811, 0.0199335553, 0.0232558139, 0.0232558139,
          0.0199335553, 0.00996677764, 0.0132890362, 0.0232558139,
          0.0132890362, 0.0598006621, 0.0166112948, 0.0199335553,
          0.0199335553, 0.0265780725, 0.00996677764, 0.0431893691,
          0.0232558139, 0.0631229207, 0.0132890362, 0.0132890362,
          0.0664451793, 0.0265780725, 0.00996677764, 0.0166112948,
          0.00664451811, 0.00332225906, 0.0132890362, 0.00664451811,
          0.0132890362, 0.0299003311, 0.0132890362, 0.00664451811,
          0.0232558139, 0.0265780725, 0.00664451811, 0.00996677764 ]
      - [ 0.0411764719, 0.0117647061, 0.0235294122, 0.0235294122,
          0.0176470596, 0., 0., 0.0117647061, 0., 0.00588235306,
          0.0117647061, 0., 0.052941177, 0.0352941193, 0.0235294122,
          0.0235294122, 0.0117647061, 0.0294117648, 0.00588235306,
          0.0235294122, 0.00588235306, 0.0411764719, 0.0294117648,
          0.0176470596, 0.0235294122, 0.0117647061, 0.052941177,
          0.0176470596, 0.0176470596, 0.0235294122, 0.00588235306,
          0.0411764719, 0.0352941193, 0.0117647061, 0.0117647061,
          0.0470588244, 0.0117647061, 0.0235294122, 0., 0.0294117648,
          0.0235294122, 0.0117647061, 0.0176470596, 0.0411764719,
          0.0117647061, 0., 0., 0.0411764719, 0.0235294122, 0.0176470596 ]
      - [ 0.0230179019, 0.0204603579, 0.015345268, 0.015345268,
          0.0306905359, 0.0127877239, 0.00255754474, 0.0281329919,
          0.0358056277, 0.015345268, 0.00767263398, 0.0102301789,
          0.015345268, 0.0102301789, 0.0332480818, 0.00767263398,
          0.0511508957, 0.0179028139, 0.0230179019, 0.0204603579,
          0.00767263398, 0.0358056277, 0.0281329919, 0.0332480818,
          0.0179028139, 0.0179028139, 0.0281329919, 0.0204603579,
          0.015345268, 0.0332480818, 0.0255754478, 0.0306905359,
          0.0204603579, 0.0102301789, 0.0383631699, 0.0383631699,
          0.00767263398, 0.00511508947, 0.0102301789, 0.0127877239,
          0.0179028139, 0.0255754478, 0.0281329919, 0.0102301789,
          0.0230179019, 0.00767263398, 0.015345268, 0.0102301789,
          0.00767263398, 0.0204603579 ]
      - [ 0.0250000004, 0.0187500007, 0.0125000002, 0.00625000009,
          0.00625000009, 0.0125000002, 0.0125000002, 0.03125,
          0.0187500007, 0.0187500007, 0.0375000015, 0.00625000009,
          0.0437499993, 0.0125000002, 0.0187500007, 0.0125000002,
          0.00625000009, 0.00625000009, 0.00625000009, 0.0125000002,
          0.0187500007, 0.0500000007, 0.03125, 0.0125000002,
          0.0250000004, 0.0125000002, 0.0500000007, 0., 0.00625000009,
          0.00625000009, 0., 0., 0.0250000004, 0.0437499993,
          0.0125000002, 0.0500000007, 0.0562500022, 0.0187500007,
          0.00625000009, 0.0187500007, 0.0375000015, 0.00625000009,
          0.03125, 0.0437499993, 0.0125000002, 0.0250000004,
          0.0125000002, 0.0250000004, 0.0187500007, 0.0187500007 ]
      - [ 0.00902934559, 0.0203160271, 0.0248307008, 0.0180586912,
          0.0338600464, 0.0203160271, 0.00902934559, 0.0564334095,
          0.0270880368, 0.0158013552, 0.0158013552, 0.00677200919,
          0.022573363, 0.0112866815, 0.0135440184, 0.0203160271,
          0.0180586912, 0.0158013552, 0.0270880368, 0.0203160271,
          0.0022573364, 0.0112866815, 0.0383747183, 0.0112866815,
          0.00902934559, 0.022573363, 0.00677200919, 0.0361173823,
          0.022573363, 0.0293453727, 0.0474040657, 0.0338600464,
          0.0135440184, 0.0180586912, 0.0744921044, 0.0361173823,
          0.0022573364, 0.0112866815, 0.0270880368, 0.0022573364,
          0.0112866815, 0.0180586912, 0.00902934559, 0.0135440184,
          0.0361173823, 0.0135440184, 0.0158013552, 0.0112866815, 0.,
          0.00902934559 ]
      - [ 0.0130718956, 0.0196078438, 0.0130718956, 0., 0., 0.0326797403,
          0., 0.0130718956, 0.0261437912, 0.00653594779, 0.0653594807,
          0.0196078438, 0.0130718956, 0.0130718956, 0.0392156877,
          0.0261437912, 0.0261437912, 0., 0.0196078438, 0.0196078438,
          0.00653594779, 0.0261437912, 0., 0.0196078438, 0.00653594779,
          0.0326797403, 0.0849673226, 0.0130718956, 0.0261437912, 0.,
          0.0130718956, 0.0326797403, 0.0130718956, 0.0392156877, 0.,
          0.0326797403, 0.0261437912, 0.0261437912, 0.00653594779,
          0.0130718956, 0.045751635, 0.0196078438, 0.0130718956,
          0.0261437912, 0.0196078438, 0.0196078438, 0.0130718956,
          0.0326797403, 0.0196078438, 0.00653594779 ]
      - [ 0.0148514844, 0.0148514844, 0.00990098994, 0.0297029689,
          0.0990099013, 0.0198019799, 0., 0., 0.0297029689,
          0.00495049497, 0., 0.0148514844, 0.0643564314, 0.0247524753,
          0.0247524753, 0.00495049497, 0.0148514844, 0.074257426,
          0.00495049497, 0.0247524753, 0.00990098994, 0., 0.00495049497,
          0.00495049497, 0.00495049497, 0.0396039598, 0.00990098994,
          0.0247524753, 0.00990098994, 0.0198019799, 0.0396039598,
          0.0396039598, 0.00990098994, 0.00495049497, 0.0643564314,
          0.00495049497, 0.00990098994, 0.00990098994, 0.0346534662, 0.,
          0.00495049497, 0.0198019799, 0.0198019799, 0.00495049497,
          0.0594059378, 0.0247524753, 0.0297029689, 0.00990098994, 0.,
          0.00495049497 ]
      - [ 0.00606060587, 0.0121212117, 0.0242424235, 0.00606060587,
          0.00606060587, 0.0121212117, 0.0242424235, 0.0242424235,
          0.0424242392, 0.0303030293, 0.0484848469, 0.0181818176,
          0.0121212117, 0.0121212117, 0.0303030293, 0.0242424235,
          0.0363636352, 0.00606060587, 0., 0.0303030293, 0.0363636352,
          0.0181818176, 0.0181818176, 0., 0., 0.00606060587,
          0.0363636352, 0.0121212117, 0.0303030293, 0.0181818176,
          0.00606060587, 0.0303030293, 0.00606060587, 0.0303030293,
          0.00606060587, 0.0363636352, 0.0363636352, 0.0363636352,
          0.00606060587, 0.00606060587, 0.0363636352, 0.0303030293,
          0.0121212117, 0.0181818176, 0., 0.0242424235, 0.00606060587,
          0.0424242392, 0.0363636352, 0.0121212117 ]
      - [ 0.0192307699, 0.00480769249, 0.00961538497, 0.0144230779,
          0.129807696, 0.00480769249, 0.00480769249, 0., 0.052884616,
          0.00961538497, 0., 0.0192307699, 0.0384615399, 0.024038462,
          0.00480769249, 0.00480769249, 0.024038462, 0.0480769239, 0.,
          0.0144230779, 0., 0.0192307699, 0.024038462, 0.00480769249,
          0.024038462, 0.0192307699, 0., 0.0144230779, 0.0192307699,
          0.024038462, 0.0432692319, 0.0432692319, 0.024038462,
          0.0192307699, 0.052884616, 0.00961538497, 0.0144230779,
          0.0144230779, 0.0480769239, 0., 0.0144230779, 0.0288461559,
          0.0192307699, 0.00961538497, 0.0288461559, 0.0144230779,
          0.0144230779, 0.00961538497, 0., 0.0144230779 ]
      - [ 0.00518134702, 0.0207253881, 0.010362694, 0.010362694,
          0.010362694, 0.0207253881, 0.010362694, 0.0259067342, 0.,
          0.0155440411, 0.010362694, 0.00518134702, 0.00518134702,
          0.0310880821, 0.010362694, 0.0414507762, 0.010362694,
          0.00518134702, 0.0207253881, 0.0466321222, 0.0310880821,
          0.00518134702, 0.0414507762, 0.0207253881, 0., 0.010362694,
          0.0621761642, 0.0207253881, 0.0155440411, 0.0207253881,
          0.0155440411, 0.0259067342, 0.00518134702, 0.0310880821,
          0.00518134702, 0.0207253881, 0.010362694, 0.0207253881, 0.,
          0.0207253881, 0.0621761642, 0.010362694, 0.0466321222,
          0.0310880821, 0.010362694, 0.0155440411, 0.0155440411,
          0.0518134683, 0.0414507762, 0.0155440411 ]
      - [ 0.013888889, 0., 0.027777778, 0.0069444445, 0., 0.0069444445,
          0.027777778, 0.0347222239, 0.020833334, 0.0347222239,
          0.027777778, 0.013888889, 0., 0.013888889, 0.0069444445,
          0.0416666679, 0.0069444445, 0.0069444445, 0., 0.0486111119,
          0.020833334, 0.0347222239, 0.0347222239, 0.013888889,
          0.013888889, 0.013888889, 0.013888889, 0.013888889,
          0.027777778, 0.0069444445, 0.013888889, 0.020833334,
          0.013888889, 0.0416666679, 0., 0.013888889, 0.0416666679,
          0.013888889, 0., 0.055555556, 0.0347222239, 0.013888889,
          0.0347222239, 0.0416666679, 0.013888889, 0.013888889,
          0.027777778, 0.027777778, 0.013888889, 0.027777778 ]
      - [ 0.0104712043, 0.0104712043, 0., 0.0104712043, 0.0732984319,
          0.0157068074, 0., 0.0209424086, 0.0523560196, 0.00523560215,
          0., 0.0209424086, 0.0418848172, 0.0157068074, 0.0157068074,
          0.0104712043, 0.0209424086, 0.0523560196, 0.0157068074,
          0.0261780098, 0., 0.0209424086, 0.0104712043, 0.0209424086,
          0.0261780098, 0.0575916246, 0., 0.0261780098, 0.00523560215,
          0., 0.036649216, 0.0261780098, 0., 0.0418848172, 0.0890052393,
          0.00523560215, 0., 0.0157068074, 0.0523560196, 0.00523560215,
          0.0209424086, 0.0157068074, 0.0261780098, 0.00523560215,
          0.0314136147, 0.0157068074, 0.00523560215, 0.0104712043, 0.,
          0.0104712043 ]
      - [ 0.00653594779, 0.0261437912, 0.0261437912, 0.0261437912, 0.,
          0., 0.0522875823, 0.0196078438, 0.0196078438, 0.0261437912,
          0.0392156877, 0.0261437912, 0.00653594779, 0.00653594779,
          0.0196078438, 0.0196078438, 0.0130718956, 0.0130718956,
          0.0261437912, 0.0326797403, 0.0196078438, 0.0326797403,
          0.0392156877, 0., 0.0196078438, 0.0261437912, 0.0392156877,
          0.0196078438, 0.0130718956, 0.00653594779, 0.0130718956,
          0.00653594779, 0., 0.0392156877, 0., 0., 0.0261437912,
          0.0196078438, 0.0196078438, 0.0261437912, 0.0522875823,
          0.0196078438, 0.0261437912, 0.0261437912, 0.00653594779,
          0.0196078438, 0.0196078438, 0.0326797403, 0.0196078438,
          0.00653594779 ]
      - [ 0.00657894742, 0.0131578948, 0.0197368413, 0.0131578948,
          0.00657894742, 0.00657894742, 0.032894738, 0.0131578948,
          0.0197368413, 0.032894738, 0.032894738, 0.0131578948,
          0.0131578948, 0.00657894742, 0.0197368413, 0.046052631,
          0.0197368413, 0.0131578948, 0.0263157897, 0.032894738,
          0.032894738, 0.032894738, 0.0131578948, 0.0131578948,
          0.00657894742, 0.0263157897, 0.0197368413, 0.0263157897,
          0.0394736826, 0.0131578948, 0.00657894742, 0.0263157897,
          0.0197368413, 0.0197368413, 0., 0.0197368413, 0.0197368413,
          0.0394736826, 0.00657894742, 0.00657894742, 0.0592105277, 0.,
          0.0131578948, 0.0263157897, 0.0131578948, 0.0263157897, 0.,
          0.032894738, 0.032894738, 0.0197368413 ]
      - [ 0.0130718956, 0.045751635, 0.0588235296, 0., 0.00653594779, 0.,
          0.0522875823, 0.0130718956, 0.0196078438, 0.0130718956,
          0.0522875823, 0.0196078438, 0.0130718956, 0.0196078438,
          0.0392156877, 0.0326797403, 0.0196078438, 0.0130718956,
          0.0261437912, 0.0261437912, 0.0130718956, 0.0261437912,
          0.0196078438, 0., 0.00653594779, 0.0196078438, 0.0261437912,
          0.00653594779, 0.045751635, 0.00653594779, 0.00653594779,
          0.0196078438, 0.0261437912, 0.0392156877, 0., 0.0261437912,
          0.0130718956, 0.0326797403, 0.00653594779, 0.0130718956,
          0.0326797403, 0.0130718956, 0.00653594779, 0.0392156877, 0.,
          0., 0.00653594779, 0.0392156877, 0.0196078438, 0.00653594779 ]
      - [ 0.0148514844, 0.00990098994, 0.00990098994, 0.0346534662,
          0.118811876, 0.0198019799, 0., 0., 0.0445544533, 0.00495049497,
          0., 0.0148514844, 0.0297029689, 0.0247524753, 0.0148514844,
          0.00990098994, 0., 0.0396039598, 0., 0.0247524753, 0.,
          0.0148514844, 0.0346534662, 0.00495049497, 0.0198019799,
          0.0643564314, 0.00495049497, 0.0198019799, 0.0247524753,
          0.00990098994, 0.0544554442, 0.0495049506, 0.0148514844, 0.,
          0.0643564314, 0.0148514844, 0.00990098994, 0.00990098994,
          0.0148514844, 0., 0.00990098994, 0.0247524753, 0.00990098994,
          0.0198019799, 0.0247524753, 0.0148514844, 0.0198019799,
          0.00495049497, 0., 0.0247524753 ]
      - [ 0.00675675692, 0.0270270277, 0.0202702712, 0.00675675692,
          0.00675675692, 0.0202702712, 0., 0.0270270277, 0.0202702712,
          0.0202702712, 0.0405405425, 0.033783786, 0., 0.00675675692,
          0.0135135138, 0.033783786, 0.0135135138, 0.0135135138,
          0.0270270277, 0.033783786, 0.0202702712, 0.0202702712,
          0.0270270277, 0., 0.00675675692, 0.0270270277, 0.033783786,
          0.0270270277, 0.0270270277, 0.00675675692, 0.0202702712,
          0.0202702712, 0.033783786, 0.033783786, 0., 0., 0.033783786,
          0.0202702712, 0.00675675692, 0.0472972989, 0.0472972989,
          0.00675675692, 0.0405405425, 0.0270270277, 0.00675675692,
          0.0135135138, 0.0135135138, 0.0270270277, 0.0202702712,
          0.0135135138 ]
      - [ 0., 0., 0.0114285713, 0.0514285713, 0.125714287, 0.0171428565,
          0., 0.0114285713, 0.0285714287, 0.00571428565, 0.,
          0.00571428565, 0.0628571436, 0.0228571426, 0.0171428565,
          0.0171428565, 0.00571428565, 0.0628571436, 0.00571428565,
          0.00571428565, 0., 0.00571428565, 0.0114285713, 0.0114285713,
          0.0285714287, 0.0285714287, 0.00571428565, 0.0171428565, 0.,
          0.00571428565, 0.034285713, 0.0228571426, 0.0114285713,
          0.0171428565, 0.119999997, 0., 0., 0.0114285713, 0.0457142852,
          0., 0.00571428565, 0.0114285713, 0.0114285713, 0.0171428565,
          0.0457142852, 0.0171428565, 0.0285714287, 0.0171428565, 0.,
          0.0114285713 ]
      - [ 0., 0.00722021656, 0.0397111923, 0.0180505421, 0.0288808662,
          0.0216606501, 0.00361010828, 0.0361010842, 0.0433213003,
          0.0252707582, 0.00361010828, 0.0144404331, 0.0180505421,
          0.00722021656, 0.0252707582, 0.0108303251, 0.0180505421,
          0.0288808662, 0.0288808662, 0.0252707582, 0.0180505421,
          0.00361010828, 0.0324909762, 0.00361010828, 0.0144404331,
          0.0288808662, 0.0361010842, 0.0144404331, 0.0180505421,
          0.00722021656, 0.0361010842, 0.0216606501, 0.00722021656,
          0.0288808662, 0.00722021656, 0.0252707582, 0.0288808662,
          0.0541516244, 0., 0.0144404331, 0.0324909762, 0., 0.0324909762,
          0.00722021656, 0.0180505421, 0.0361010842, 0.0324909762,
          0.00722021656, 0.00722021656, 0.0216606501 ]
      - [ 0.00537634408, 0.0161290318, 0.0161290318, 0.0215053763,
          0.0268817209, 0.0161290318, 0.0215053763, 0.0322580636,
          0.03763441, 0.0107526882, 0.0107526882, 0.0161290318,
          0.0268817209, 0.0161290318, 0.0268817209, 0.0161290318,
          0.0268817209, 0.0322580636, 0.0215053763, 0.0215053763,
          0.0215053763, 0.0161290318, 0.0107526882, 0.00537634408, 0.,
          0.0161290318, 0.0483870953, 0.0107526882, 0.0322580636,
          0.0107526882, 0.0268817209, 0.0483870953, 0.0161290318,
          0.0107526882, 0.0107526882, 0.0322580636, 0.0107526882,
          0.0161290318, 0.00537634408, 0.0215053763, 0.0268817209,
          0.0107526882, 0.0322580636, 0.0107526882, 0.0215053763,
          0.0161290318, 0.0107526882, 0.0161290318, 0.0322580636,
          0.0322580636 ]
      - [ 0.0159574468, 0.0159574468, 0.0186170209, 0.0132978717,
          0.0452127643, 0.0239361692, 0.0292553175, 0.0372340418,
          0.0265957434, 0.0132978717, 0.0212765951, 0.0239361692,
          0.0212765951, 0.0212765951, 0.0319148935, 0.0132978717,
          0.0212765951, 0.0159574468, 0.0212765951, 0.0132978717,
          0.0186170209, 0.00797872338, 0.0319148935, 0., 0.,
          0.0372340418, 0.0265957434, 0.0292553175, 0.0212765951,
          0.00531914877, 0.0265957434, 0.0106382975, 0.00265957438,
          0.0159574468, 0.0452127643, 0.00797872338, 0.0159574468,
          0.0159574468, 0.0239361692, 0.0159574468, 0.0159574468,
          0.0132978717, 0.0212765951, 0.0159574468, 0.039893616,
          0.0239361692, 0.0106382975, 0.0186170209, 0.00531914877,
          0.0319148935 ]
      - [ 0.0169491526, 0.0193704609, 0.0145278461, 0.0217917692,
          0.0169491526, 0.0217917692, 0.00968523044, 0.0290556923,
          0.0169491526, 0.0242130756, 0.0314770006, 0.0217917692, 0.,
          0.0145278461, 0.0169491526, 0.00968523044, 0.0363196135,
          0.0169491526, 0.0193704609, 0.00726392306, 0.0242130756,
          0.0314770006, 0.0169491526, 0.0266343839, 0.0242130756,
          0.0217917692, 0.0169491526, 0.0242130756, 0.0314770006,
          0.0217917692, 0.0242130756, 0.0338983051, 0.0338983051,
          0.046004843, 0.0314770006, 0.0145278461, 0.0169491526,
          0.0169491526, 0.00242130761, 0.00726392306, 0.0217917692,
          0.0314770006, 0.0121065378, 0.0121065378, 0.00968523044,
          0.0193704609, 0.0145278461, 0.0193704609, 0.0145278461,
          0.0121065378 ]
      - [ 0.00526315812, 0.0157894753, 0.0210526325, 0.00526315812,
          0.0473684222, 0.0263157897, 0.0105263162, 0.042105265,
          0.0368421078, 0.0263157897, 0., 0.0263157897, 0.0105263162,
          0.0157894753, 0.00526315812, 0.0105263162, 0., 0.042105265,
          0.0315789506, 0.0315789506, 0.0105263162, 0.00526315812,
          0.0263157897, 0., 0.0105263162, 0.0210526325, 0., 0.0210526325,
          0.0210526325, 0.0105263162, 0.0368421078, 0.042105265,
          0.0210526325, 0.0157894753, 0.0631579012, 0.0263157897,
          0.0105263162, 0.0157894753, 0.0368421078, 0.0105263162,
          0.0105263162, 0.0105263162, 0.0105263162, 0.0105263162,
          0.0578947403, 0.0263157897, 0.0157894753, 0.00526315812,
          0.00526315812, 0.0315789506 ]
      - [ 0., 0.0279069766, 0.0139534883, 0.0232558139, 0.0325581394,
          0.0139534883, 0.0186046511, 0.0232558139, 0.0279069766,
          0.0325581394, 0.0279069766, 0.0232558139, 0.0465116277, 0.,
          0.00465116277, 0.0279069766, 0.0186046511, 0.00930232555,
          0.0325581394, 0.0139534883, 0.0232558139, 0.00465116277,
          0.0232558139, 0.0139534883, 0.00465116277, 0.0232558139,
          0.0232558139, 0.0232558139, 0.0232558139, 0.0139534883,
          0.00465116277, 0.0279069766, 0.0372093022, 0.00930232555,
          0.0558139533, 0.0186046511, 0.00930232555, 0.0465116277,
          0.0139534883, 0., 0.0372093022, 0.0232558139, 0.0232558139,
          0.00465116277, 0.0139534883, 0.0139534883, 0.0186046511,
          0.0139534883, 0.00930232555, 0.0232558139 ]
      - [ 0.0102564106, 0.0153846163, 0.0102564106, 0.051282052,
          0.0307692327, 0.0358974375, 0.0102564106, 0.0358974375,
          0.00512820529, 0.0307692327, 0.025641026, 0.0410256423,
          0.0153846163, 0.00512820529, 0.0153846163, 0.0102564106,
          0.0307692327, 0.0205128212, 0.025641026, 0.0307692327,
          0.0205128212, 0.00512820529, 0.0358974375, 0.00512820529, 0.,
          0.00512820529, 0.0153846163, 0.0410256423, 0.0307692327,
          0.0102564106, 0.0205128212, 0.025641026, 0.025641026,
          0.00512820529, 0.0564102568, 0.0102564106, 0.0102564106,
          0.0307692327, 0.0205128212, 0.0102564106, 0.0153846163,
          0.0102564106, 0.0307692327, 0.0205128212, 0.0153846163,
          0.0205128212, 0.0102564106, 0.0153846163, 0.00512820529,
          0.0153846163 ]
      - [ 0.0132450331, 0.0198675506, 0.0132450331, 0.00662251655, 0.,
          0.0132450331, 0.0198675506, 0.0529801324, 0.0132450331,
          0.0198675506, 0.0463576168, 0.0132450331, 0.0132450331,
          0.00662251655, 0.0132450331, 0.0331125818, 0.0264900662,
          0.00662251655, 0.0198675506, 0.0198675506, 0.0132450331,
          0.0132450331, 0.0397351012, 0.0132450331, 0.00662251655,
          0.0132450331, 0.0529801324, 0.0264900662, 0.0198675506,
          0.0463576168, 0.00662251655, 0.0132450331, 0.0132450331,
          0.0264900662, 0.0264900662, 0.00662251655, 0.00662251655,
          0.0397351012, 0.00662251655, 0.059602648, 0.0397351012, 0.,
          0.0264900662, 0.0132450331, 0., 0.0132450331, 0., 0.0264900662,
          0.0463576168, 0.0132450331 ]
      - [ 0.0376766101, 0.00941915251, 0.0109890113, 0.00941915251,
          0.0423861854, 0.0266875997, 0.0109890113, 0.0298273154,
          0.0282574575, 0.0156985875, 0.00470957626, 0.0172684453,
          0.031397175, 0.0156985875, 0.00941915251, 0.0141287288,
          0.00941915251, 0.0266875997, 0.0204081647, 0.0235478804,
          0.0219780225, 0.0109890113, 0.0156985875, 0.0172684453,
          0.00941915251, 0.02511774, 0.031397175, 0.00470957626,
          0.0235478804, 0.0031397175, 0.02511774, 0.0298273154,
          0.0329670347, 0.0235478804, 0.0439560451, 0.0204081647,
          0.01255887, 0.0298273154, 0.031397175, 0.00784929376,
          0.02511774, 0.018838305, 0.01255887, 0.0109890113, 0.031397175,
          0.0219780225, 0.0219780225, 0.0172684453, 0.0109890113,
          0.0141287288 ]
      - [ 0.0193236712, 0.0120772943, 0.0314009674, 0.0362318829,
          0.0120772943, 0.0193236712, 0.0314009674, 0.0386473425,
          0.0314009674, 0.0217391308, 0.0289855078, 0.00966183562,
          0.0193236712, 0.00966183562, 0.00724637695, 0.00483091781,
          0.0434782617, 0.0241545886, 0.0193236712, 0.0386473425,
          0.0120772943, 0.0241545886, 0.0193236712, 0.00724637695,
          0.00724637695, 0.0217391308, 0.0386473425, 0.0265700482,
          0.00483091781, 0.0193236712, 0.0289855078, 0.0169082116,
          0.0120772943, 0.0193236712, 0.00966183562, 0.0193236712,
          0.0241545886, 0.00966183562, 0.0193236712, 0.0193236712,
          0.0120772943, 0.00966183562, 0.0362318829, 0.0120772943,
          0.0144927539, 0.0265700482, 0.0144927539, 0.0193236712,
          0.0217391308, 0.0144927539 ]
      - [ 0.013129103, 0.0153172873, 0.013129103, 0.0153172873,
          0.0153172873, 0.026258206, 0.0153172873, 0.0306345746,
          0.032822758, 0.013129103, 0.019693654, 0.0175054707,
          0.00875273533, 0.019693654, 0.019693654, 0.0153172873,
          0.0306345746, 0.0218818374, 0.0065645515, 0.0306345746,
          0.0175054707, 0.0153172873, 0.019693654, 0.0065645515,
          0.019693654, 0.0240700226, 0.0284463894, 0.0153172873,
          0.0153172873, 0.0153172873, 0.0284463894, 0.026258206,
          0.0306345746, 0.0218818374, 0.0175054707, 0.0240700226,
          0.0218818374, 0.0175054707, 0.0175054707, 0.0109409187,
          0.026258206, 0.0240700226, 0.0240700226, 0.032822758,
          0.00875273533, 0.032822758, 0.0175054707, 0.026258206,
          0.0109409187, 0.0218818374 ]
      - [ 0.0159090906, 0.0113636358, 0.038636364, 0.0159090906,
          0.0113636358, 0.0227272715, 0.0159090906, 0.0363636352,
          0.0090909088, 0.0136363637, 0.0090909088, 0.0090909088,
          0.0363636352, 0.0159090906, 0.0272727273, 0.0272727273,
          0.0181818176, 0.0090909088, 0.0249999985, 0.0181818176,
          0.0045454544, 0.0204545446, 0.0227272715, 0.0159090906,
          0.0113636358, 0.0181818176, 0.00681818184, 0.0249999985,
          0.0227272715, 0.00681818184, 0.0295454543, 0.0204545446,
          0.038636364, 0.038636364, 0.0340909064, 0.043181818,
          0.0136363637, 0.0272727273, 0.00681818184, 0.0159090906,
          0.0204545446, 0.0249999985, 0.0249999985, 0.0181818176,
          0.0045454544, 0.0204545446, 0.0159090906, 0.0227272715,
          0.0113636358, 0.0272727273 ]
      - [ 0.0304449629, 0.0187353622, 0.0281030424, 0.0140515212,
          0.0210772827, 0.0140515212, 0.0117096016, 0.0327868834,
          0.0117096016, 0.0163934417, 0.0070257606, 0.0187353622,
          0.0351288058, 0.0140515212, 0.0117096016, 0.0187353622,
          0.0140515212, 0.0163934417, 0.0163934417, 0.00936768111,
          0.0210772827, 0.0163934417, 0.0444964841, 0.0210772827,
          0.0140515212, 0.0187353622, 0.0234192032, 0.0398126431,
          0.0281030424, 0.0234192032, 0.0187353622, 0.0234192032,
          0.0281030424, 0.0140515212, 0.0374707244, 0.0187353622,
          0.0187353622, 0.0234192032, 0.0163934417, 0.0257611237,
          0.0257611237, 0.0210772827, 0.0210772827, 0.00936768111,
          0.0070257606, 0.0117096016, 0.0140515212, 0.0234192032,
          0.0163934417, 0.0140515212 ]
      - [ 0.0149999997, 0.0124999993, 0.0175000001, 0.0124999993,
          0.0249999985, 0.0175000001, 0.0374999978, 0.0425000004,
          0.0425000004, 0.0124999993, 0.0124999993, 0.0274999999,
          0.0175000001, 0.00999999978, 0.00499999989, 0.0124999993,
          0.0199999996, 0.0249999985, 0.0149999997, 0.0274999999,
          0.0175000001, 0.00749999983, 0.0199999996, 0.0175000001,
          0.022499999, 0.0149999997, 0.0324999988, 0.0199999996,
          0.0149999997, 0.022499999, 0.0249999985, 0.0249999985,
          0.0249999985, 0.0175000001, 0.0449999981, 0.0149999997,
          0.0124999993, 0.0274999999, 0.0274999999, 0.0124999993,
          0.0149999997, 0.0199999996, 0.0274999999, 0.00999999978,
          0.0199999996, 0.0149999997, 0.0199999996, 0.0249999985,
          0.00499999989, 0.0124999993 ]
      - [ 0.00799999945, 0.0213333331, 0.0240000002, 0.00266666664,
          0.0159999989, 0.0133333337, 0.0159999989, 0.0826666653,
          0.0293333326, 0.0346666649, 0.0213333331, 0.0159999989,
          0.00533333328, 0.00799999945, 0.0133333337, 0.0240000002,
          0.0213333331, 0.0133333337, 0.0213333331, 0.00799999945,
          0.018666666, 0.0213333331, 0.018666666, 0., 0.0159999989,
          0.0213333331, 0.0266666673, 0.0319999978, 0.0346666649,
          0.0240000002, 0.0426666662, 0.0240000002, 0.00799999945,
          0.0213333331, 0.0266666673, 0.0399999991, 0.0266666673,
          0.0133333337, 0.00266666664, 0.0106666666, 0.0213333331,
          0.0106666666, 0.0213333331, 0.0133333337, 0.00533333328,
          0.0266666673, 0.0213333331, 0.0213333331, 0.0106666666,
          0.018666666 ]
      - [ 0., 0., 0.0283687934, 0.0283687934, 0.0709219873, 0.0212765951,
          0., 0.0354609936, 0.0141843967, 0., 0., 0.0141843967,
          0.0567375869, 0.0354609936, 0.00709219836, 0., 0.00709219836,
          0.00709219836, 0.0354609936, 0., 0., 0.00709219836,
          0.0567375869, 0.0354609936, 0.0141843967, 0.0638297871, 0.,
          0.0354609936, 0.00709219836, 0.0141843967, 0.0921985805,
          0.0567375869, 0.0425531901, 0.0141843967, 0.0496453866, 0.,
          0.00709219836, 0.00709219836, 0.0283687934, 0.00709219836,
          0.00709219836, 0.0141843967, 0., 0.00709219836, 0.0212765951,
          0., 0.0212765951, 0.00709219836, 0., 0.0212765951 ]
      - [ 0.00531914877, 0.0372340418, 0.0212765951, 0.0106382975,
          0.0425531901, 0.0159574468, 0., 0.0265957434, 0.0319148935,
          0.00531914877, 0., 0.0106382975, 0.0319148935, 0.0265957434,
          0.0106382975, 0.0106382975, 0.00531914877, 0.0372340418,
          0.0212765951, 0.0159574468, 0., 0.0106382975, 0.0319148935,
          0.0159574468, 0.0212765951, 0.0691489354, 0., 0.0425531901,
          0.0106382975, 0., 0.0744680837, 0.0372340418, 0.0212765951,
          0.0212765951, 0.0372340418, 0.0265957434, 0., 0.00531914877,
          0.0265957434, 0., 0., 0.0106382975, 0.0159574468, 0.0212765951,
          0.0478723384, 0.00531914877, 0.0159574468, 0.0265957434,
          0.00531914877, 0.0319148935 ]
      - [ 0.0147058824, 0.011029412, 0.0073529412, 0.0147058824,
          0.0183823537, 0.033088237, 0.011029412, 0.0588235296,
          0.0404411778, 0.0147058824, 0.0147058824, 0.0147058824,
          0.0257352944, 0.0220588241, 0.0073529412, 0.0147058824,
          0.011029412, 0.033088237, 0.0073529412, 0.0183823537,
          0.0183823537, 0.011029412, 0.033088237, 0.011029412,
          0.0147058824, 0.0257352944, 0.0257352944, 0.0294117648,
          0.0183823537, 0.0220588241, 0.0183823537, 0.0257352944,
          0.0147058824, 0.0147058824, 0.0257352944, 0.0183823537,
          0.0220588241, 0.0257352944, 0.011029412, 0.0220588241,
          0.0183823537, 0.0294117648, 0.011029412, 0.011029412,
          0.0367647074, 0.0294117648, 0.011029412, 0.0257352944,
          0.0147058824, 0.011029412 ]
      - [ 0.0120481923, 0.00401606411, 0.0281124488, 0.0200803205,
          0.0522088334, 0.0200803205, 0.00401606411, 0.0281124488,
          0.036144577, 0.0200803205, 0., 0., 0.0240963846, 0.0281124488,
          0.0120481923, 0.00803212821, 0.00401606411, 0.0401606411,
          0.0240963846, 0.00401606411, 0.00803212821, 0.0120481923,
          0.0401606411, 0.0160642564, 0.0281124488, 0.0401606411,
          0.00401606411, 0.0441767052, 0.0240963846, 0.00401606411,
          0.0441767052, 0.0160642564, 0.0321285129, 0.0160642564,
          0.0642570257, 0.0281124488, 0., 0.0160642564, 0.0120481923, 0.,
          0.0160642564, 0.0240963846, 0.00803212821, 0.0120481923,
          0.0481927693, 0.0200803205, 0.0200803205, 0.0160642564, 0.,
          0.0160642564 ]
      - [ 0.0133333337, 0.0222222228, 0.00444444455, 0.0177777782,
          0.0444444455, 0.0355555564, 0., 0.0399999991, 0.0266666673,
          0.0177777782, 0.0088888891, 0.0311111119, 0.0266666673,
          0.0222222228, 0.0133333337, 0.0266666673, 0.0133333337,
          0.00444444455, 0., 0.00444444455, 0.0088888891, 0.0266666673,
          0.0488888919, 0.0177777782, 0.0222222228, 0.0311111119,
          0.0133333337, 0.0399999991, 0.0222222228, 0.0088888891,
          0.0799999982, 0.0311111119, 0., 0.0088888891, 0.0666666701,
          0.0088888891, 0.0133333337, 0.0177777782, 0.0133333337, 0.,
          0.0222222228, 0.00444444455, 0.0133333337, 0.0177777782,
          0.0355555564, 0.0133333337, 0.0177777782, 0.0088888891,
          0.00444444455, 0.0088888891 ]
      - [ 0.00803212821, 0.0240963846, 0.0120481923, 0.00803212821,
          0.00803212821, 0.0240963846, 0., 0.0200803205, 0.0200803205,
          0.0120481923, 0.0160642564, 0.0200803205, 0.00803212821,
          0.0240963846, 0.00401606411, 0.0160642564, 0.0160642564,
          0.00401606411, 0.0281124488, 0.0120481923, 0.0160642564,
          0.0441767052, 0.036144577, 0.0200803205, 0.0160642564,
          0.0160642564, 0.0160642564, 0.0401606411, 0.036144577,
          0.0200803205, 0.0281124488, 0.0240963846, 0.0401606411,
          0.0562248975, 0.0160642564, 0.036144577, 0.0281124488,
          0.0240963846, 0.00401606411, 0.0120481923, 0.036144577,
          0.00401606411, 0.0240963846, 0.0120481923, 0.0240963846,
          0.0120481923, 0.0120481923, 0.0200803205, 0.0120481923,
          0.0281124488 ]
      - [ 0., 0.00985221658, 0.0197044332, 0.0147783253, 0.049261082,
          0.024630541, 0., 0.0147783253, 0.0295566507, 0.00985221658,
          0.00492610829, 0., 0.0344827585, 0.0295566507, 0.00492610829,
          0.0197044332, 0.0147783253, 0.00985221658, 0.00985221658, 0.,
          0.0147783253, 0.0344827585, 0.024630541, 0.00492610829,
          0.00492610829, 0.068965517, 0., 0.0344827585, 0.0147783253,
          0.0295566507, 0.0443349741, 0.0541871898, 0.024630541,
          0.00492610829, 0.0837438405, 0.0147783253, 0.00492610829,
          0.0394088663, 0.0344827585, 0., 0.0147783253, 0.0147783253,
          0.00492610829, 0.0197044332, 0.0295566507, 0.00985221658,
          0.00985221658, 0.024630541, 0.00492610829, 0.0295566507 ]
      - [ 0.0129781421, 0.0396174863, 0.0157103818, 0.0116120214,
          0.0170765016, 0.0293715838, 0.0109289614, 0.0276639331,
          0.0167349726, 0.0150273219, 0.0163934417, 0.0252732225,
          0.0146857919, 0.0245901626, 0.0129781421, 0.0129781421,
          0.0170765016, 0.0198087431, 0.0204918031, 0.0163934417,
          0.0293715838, 0.00922131166, 0.028005464, 0.0119535513,
          0.0208333321, 0.0235655736, 0.0228825137, 0.0266393442,
          0.035860654, 0.014002732, 0.0262978133, 0.0167349726,
          0.0221994538, 0.0181010924, 0.0389344245, 0.0170765016,
          0.0105874315, 0.013661202, 0.0276639331, 0.00546448072,
          0.0276639331, 0.0252732225, 0.0102459015, 0.0112704914,
          0.0293715838, 0.0187841523, 0.0218579229, 0.0239071026,
          0.00683060102, 0.028346993 ]
      - [ 0.0142222224, 0.0088888891, 0.0231111106, 0.0133333337,
          0.0426666662, 0.018666666, 0.0328888893, 0.0435555577,
          0.0142222224, 0.0124444449, 0.0240000002, 0.00711111119,
          0.0382222235, 0.0115555553, 0.0257777777, 0.018666666,
          0.0257777777, 0.0088888891, 0.018666666, 0.0293333344,
          0.0088888891, 0.0240000002, 0.0391111113, 0.0124444449,
          0.00622222247, 0.00444444455, 0.0337777771, 0.0391111113,
          0.0124444449, 0.0364444442, 0.0115555553, 0.0168888886,
          0.0106666666, 0.0142222224, 0.0337777771, 0.0204444453,
          0.00711111119, 0.0142222224, 0.0160000008, 0.0240000002,
          0.0177777782, 0.0142222224, 0.0213333331, 0.0222222228,
          0.0088888891, 0.0168888886, 0.0151111111, 0.0142222224,
          0.0240000002, 0.0275555551 ]
      - [ 0.0201612897, 0.0141129028, 0.0262096766, 0.00604838692,
          0.0120967738, 0.0181451607, 0.00806451589, 0.0302419346,
          0.0161290318, 0.0201612897, 0.0120967738, 0.0262096766,
          0.00604838692, 0.0241935477, 0.0120967738, 0.00604838692,
          0.0221774187, 0.0201612897, 0.0262096766, 0.0221774187,
          0.0282258056, 0.00806451589, 0.0282258056, 0.0161290318,
          0.0241935477, 0.0282258056, 0.0141129028, 0.0241935477,
          0.0161290318, 0.00806451589, 0.0241935477, 0.0161290318,
          0.0262096766, 0.0201612897, 0.0282258056, 0.0262096766,
          0.0221774187, 0.0120967738, 0.0262096766, 0.0221774187,
          0.0302419346, 0.0221774187, 0.0282258056, 0.0181451607,
          0.0181451607, 0.0262096766, 0.0201612897, 0.0362903215,
          0.00806451589, 0.0241935477 ]
      - [ 0.0181818176, 0.0166666657, 0.0287878774, 0.0106060598,
          0.00757575734, 0.0181818176, 0.0181818176, 0.0196969695,
          0.0196969695, 0.0121212117, 0.0166666657, 0.0181818176,
          0.0106060598, 0.0106060598, 0.0181818176, 0.0106060598,
          0.0196969695, 0.0287878774, 0.0272727273, 0.0272727273,
          0.0196969695, 0.0166666657, 0.0363636352, 0.0257575754,
          0.0181818176, 0.0090909088, 0.0348484851, 0.0303030293,
          0.0303030293, 0.0181818176, 0.0212121196, 0.0121212117,
          0.0181818176, 0.0196969695, 0.0363636352, 0.0166666657,
          0.0151515147, 0.0166666657, 0.0136363637, 0.0212121196,
          0.0227272715, 0.0212121196, 0.0287878774, 0.0166666657,
          0.0106060598, 0.0212121196, 0.0166666657, 0.0196969695,
          0.0272727273, 0.0272727273 ]
      - [ 0.0129111586, 0.013833384, 0.0199815556, 0.0218260065,
          0.0141407931, 0.0295112208, 0.0193667375, 0.0522594526,
          0.0310482625, 0.0153704267, 0.0119889332, 0.0169074703,
          0.0119889332, 0.0166000612, 0.0279741772, 0.0187519211,
          0.00768521335, 0.0239778664, 0.0166000612, 0.0325853042,
          0.0325853042, 0.0101444814, 0.0159852449, 0.00860743877,
          0.0255149081, 0.0129111586, 0.0264371336, 0.0141407931,
          0.0159852449, 0.0178296957, 0.0119889332, 0.0202889629,
          0.0156778358, 0.020596372, 0.0199815556, 0.0202889629,
          0.0141407931, 0.00645557931, 0.0212111901, 0.0175222866,
          0.023055641, 0.0209037811, 0.0282815862, 0.0252075009,
          0.0190593302, 0.0335075296, 0.0202889629, 0.023055641,
          0.0162926521, 0.0267445426 ]
      - [ 0.0340425521, 0.00638297852, 0.0223404244, 0.0106382975,
          0.0489361696, 0.0159574468, 0.0244680848, 0.0244680848,
          0.0234042555, 0.0117021278, 0.0191489346, 0.0180851053,
          0.093617022, 0.0117021278, 0.0117021278, 0.00957446732,
          0.0393617004, 0.0106382975, 0.0234042555, 0.0170212761,
          0.0106382975, 0.0265957434, 0.0170212761, 0.0159574468,
          0.0202127658, 0.0180851053, 0.0170212761, 0.012765957,
          0.0138297863, 0.0308510624, 0.0191489346, 0.0255319141,
          0.0138297863, 0.0148936165, 0.032978721, 0.0202127658,
          0.0180851053, 0.0138297863, 0.0244680848, 0.0117021278,
          0.0106382975, 0.0138297863, 0.0170212761, 0.0106382975,
          0.00957446732, 0.0170212761, 0.0287234038, 0.00957446732,
          0.012765957, 0.0159574468 ]
      - [ 0.0144787645, 0.0220077224, 0.0214285702, 0.0210424699,
          0.0216216221, 0.0266409256, 0.0113899615, 0.0191119686,
          0.0283783786, 0.013706563, 0.0264478754, 0.0239382237,
          0.0135135129, 0.0218146723, 0.0135135129, 0.0154440152,
          0.0158301163, 0.0287644789, 0.0202702694, 0.0194980688,
          0.0127413124, 0.0117760617, 0.0148648648, 0.0123552121,
          0.0227799229, 0.0247104242, 0.0214285702, 0.0198841691,
          0.019691119, 0.0110038612, 0.0247104242, 0.0241312739,
          0.0247104242, 0.0250965245, 0.0235521235, 0.0158301163,
          0.0110038612, 0.00965250935, 0.0455598459, 0.0111969113,
          0.0148648648, 0.0316602327, 0.0173745174, 0.0181467179,
          0.0353281833, 0.0247104242, 0.0231660232, 0.0142857144,
          0.00907335896, 0.025868725 ]
      - [ 0.0230607949, 0.0167714879, 0.0398322828, 0.0188679248,
          0.0503144637, 0.0125786159, 0.0230607949, 0.0335429758,
          0.00419287197, 0.00838574395, 0.0146750519, 0.0125786159,
          0.0503144637, 0.0251572318, 0.0209643599, 0.0230607949,
          0.0335429758, 0.0167714879, 0.0314465389, 0.0398322828,
          0.0146750519, 0.0335429758, 0.0209643599, 0.00628930796,
          0.00209643599, 0., 0.0482180268, 0.0419287197, 0.00838574395,
          0.0125786159, 0.00419287197, 0.00419287197, 0.0251572318,
          0.0230607949, 0.0188679248, 0.0314465389, 0.0125786159,
          0.0314465389, 0., 0.0146750519, 0.0125786159, 0.00838574395,
          0.0251572318, 0.0125786159, 0.00628930796, 0.0230607949,
          0.0167714879, 0.0209643599, 0.0104821799, 0.0104821799 ]
      - [ 0.0176548976, 0.0139906732, 0.0139906732, 0.012991339,
          0.035642907, 0.0119920056, 0.0229846779, 0.037308462,
          0.0246502347, 0.0156562291, 0.0176548976, 0.0133244507,
          0.0209860094, 0.0213191211, 0.0196535643, 0.0166555643,
          0.0213191211, 0.0163224526, 0.0179880075, 0.0196535643,
          0.0196535643, 0.0256495681, 0.0226515662, 0.0216522329,
          0.0179880075, 0.0156562291, 0.0463024676, 0.0179880075,
          0.0166555643, 0.0199866761, 0.0149900075, 0.0233177878,
          0.0233177878, 0.0236508995, 0.0263157897, 0.0343104601,
          0.00999333803, 0.0196535643, 0.0206528977, 0.0109926723,
          0.0216522329, 0.0209860094, 0.0203197878, 0.0206528977,
          0.00966022722, 0.0199866761, 0.0153231183, 0.0229846779,
          0.00932711549, 0.0159893408 ]
      - [ 0.0210084021, 0.0252100825, 0.0246098433, 0.0126050413,
          0.0162064824, 0.0168067217, 0.029411763, 0.0282112844,
          0.0234093629, 0.0186074432, 0.0282112844, 0.0138055217,
          0.0192076825, 0.0168067217, 0.012004802, 0.024009604,
          0.0312124845, 0.0102040814, 0.0234093629, 0.0180072021,
          0.0342136845, 0.0192076825, 0.0174069628, 0.0108043216,
          0.0216086432, 0.0156062422, 0.0456182472, 0.0180072021,
          0.0186074432, 0.0174069628, 0.012004802, 0.015006002,
          0.0180072021, 0.0312124845, 0.0156062422, 0.0426170453,
          0.015006002, 0.0186074432, 0.0162064824, 0.0102040814,
          0.0336134434, 0.0168067217, 0.015006002, 0.0162064824,
          0.00960384123, 0.0186074432, 0.0174069628, 0.0264105629,
          0.00840336084, 0.012004802 ]
      - [ 0.0183486231, 0.0183486231, 0.0550458692, 0.00917431153,
          0.0458715558, 0.0183486231, 0.0458715558, 0.0275229346,
          0.00917431153, 0.0183486231, 0.0183486231, 0.0183486231,
          0.0183486231, 0.00917431153, 0.0275229346, 0.0183486231,
          0.0183486231, 0., 0.0366972461, 0.0183486231, 0.0183486231,
          0.00917431153, 0.0366972461, 0.0183486231, 0.00917431153,
          0.00917431153, 0.0183486231, 0.0275229346, 0.0275229346,
          0.00917431153, 0.0183486231, 0.00917431153, 0., 0.0275229346,
          0.0183486231, 0.0642201826, 0.0275229346, 0.0275229346,
          0.00917431153, 0., 0.0183486231, 0., 0.0183486231,
          0.0183486231, 0.0183486231, 0.00917431153, 0.0183486231,
          0.0550458692, 0.00917431153, 0. ]
      - [ 0.0220264308, 0.0110132154, 0.026431717, 0.0220264308,
          0.0462555066, 0.0176211447, 0., 0.00440528616, 0.026431717,
          0.0286343601, 0.0110132154, 0.0220264308, 0.0176211447,
          0.0110132154, 0.0132158585, 0.0374449342, 0.0154185016,
          0.0308370031, 0.0418502167, 0.0154185016, 0.0176211447, 0.,
          0.0374449342, 0.0110132154, 0.0198237877, 0.0220264308,
          0.0176211447, 0.026431717, 0.0242290739, 0.0220264308,
          0.0176211447, 0.0286343601, 0.0220264308, 0.0550660789,
          0.0110132154, 0.0154185016, 0.0176211447, 0.00660792924,
          0.026431717, 0.00440528616, 0.00881057233, 0.0242290739,
          0.0286343601, 0.0242290739, 0.0198237877, 0.0176211447,
          0.0198237877, 0.0154185016, 0.00660792924, 0.0110132154 ]
      - [ 0.0147601478, 0.0166051667, 0.0184501857, 0.0332103334,
          0.0239852406, 0.0258302577, 0.00553505542, 0.0553505532,
          0.0313653126, 0.0276752766, 0.00184501847, 0.0147601478,
          0.0166051667, 0.0129151288, 0.0239852406, 0.0202952027,
          0.00922509283, 0.0239852406, 0.0202952027, 0.0129151288,
          0.0110701108, 0.0129151288, 0.0295202956, 0.0184501857,
          0.0147601478, 0.0276752766, 0.0166051667, 0.0258302577,
          0.0239852406, 0.0147601478, 0.0313653126, 0.0202952027,
          0.0129151288, 0.0202952027, 0.0295202956, 0.0442804433,
          0.00738007389, 0.0184501857, 0.0166051667, 0.0129151288,
          0.0166051667, 0.0221402217, 0.0239852406, 0.0239852406,
          0.0166051667, 0.0221402217, 0.0166051667, 0.0184501857,
          0.00922509283, 0.0110701108 ]
      - [ 0.0165517256, 0.0179310348, 0.0275862068, 0.0110344831,
          0.03172414, 0.0193103459, 0.0275862068, 0.0151724145,
          0.0179310348, 0.0179310348, 0.0358620696, 0.0151724145,
          0.030344829, 0.00965517294, 0.00551724155, 0.0124137932,
          0.0455172434, 0.0124137932, 0.0179310348, 0.0262068976,
          0.0165517256, 0.030344829, 0.0262068976, 0.0234482773,
          0.0151724145, 0.0151724145, 0.0275862068, 0.0289655179,
          0.0151724145, 0.0137931034, 0.0110344831, 0.0137931034,
          0.0151724145, 0.0137931034, 0.0358620696, 0.0193103459,
          0.0248275865, 0.0206896551, 0.0110344831, 0.0165517256,
          0.0179310348, 0.0068965517, 0.0220689662, 0.0165517256,
          0.0165517256, 0.0151724145, 0.0248275865, 0.0289655179,
          0.0275862068, 0.0151724145 ]
      - [ 0.00233100238, 0.0116550121, 0.025641026, 0.00699300691,
          0.025641026, 0.00932400953, 0.00699300691, 0.0279720277,
          0.0303030312, 0.00932400953, 0.00466200477, 0.00932400953,
          0.165501162, 0.00932400953, 0.0419580415, 0.0186480191,
          0.0466200486, 0.0233100243, 0.0233100243, 0.0209790207,
          0.00233100238, 0.0326340348, 0.0303030312, 0.0186480191,
          0.00932400953, 0.00233100238, 0.0163170174, 0.025641026,
          0.0163170174, 0.0303030312, 0.00466200477, 0.0233100243,
          0.00466200477, 0.00699300691, 0.0186480191, 0.0116550121,
          0.0186480191, 0.0186480191, 0.0116550121, 0.0139860138,
          0.0163170174, 0.0186480191, 0.0209790207, 0.0233100243,
          0.0116550121, 0.0163170174, 0.0139860138, 0.0139860138,
          0.0186480191, 0.00932400953 ]
      - [ 0.0265800357, 0.0129946843, 0.0135853523, 0.0324867107,
          0.0194920264, 0.0224453639, 0.0124040172, 0.0354400501,
          0.03957472, 0.00945067964, 0.0378027186, 0.0165386889,
          0.0165386889, 0.01181335, 0.0236267, 0.0100413468,
          0.0295333732, 0.0218546968, 0.0159480218, 0.0324867107,
          0.01181335, 0.0153573547, 0.0248080343, 0.0165386889,
          0.0129946843, 0.0141760195, 0.0407560542, 0.0153573547,
          0.0124040172, 0.0159480218, 0.017129356, 0.0189013593,
          0.0124040172, 0.0212640297, 0.017720025, 0.0206733625,
          0.0236267, 0.0124040172, 0.0253987014, 0.0183106922,
          0.0183106922, 0.0141760195, 0.0342587121, 0.0183106922,
          0.0129946843, 0.0259893686, 0.0159480218, 0.0224453639,
          0.0153573547, 0.0135853523 ]
      - [ 0.0150214592, 0.0236051492, 0.0321888402, 0.0150214592,
          0.0278969966, 0.00858369097, 0.0236051492, 0.0450643785,
          0.0150214592, 0.0150214592, 0.0386266112, 0.0193133056,
          0.0386266112, 0.00858369097, 0.0214592274, 0.0257510729,
          0.0236051492, 0.00429184549, 0.0278969966, 0.0278969966,
          0.00858369097, 0.0214592274, 0.0300429184, 0.00858369097,
          0.0193133056, 0.0128755365, 0.0257510729, 0.0257510729,
          0.0150214592, 0.0107296137, 0.00643776823, 0.0128755365,
          0.00858369097, 0.0107296137, 0.0214592274, 0.0364806876,
          0.0257510729, 0.0171673819, 0.0128755365, 0.0214592274,
          0.00643776823, 0.0214592274, 0.0407725312, 0.0321888402, 0.,
          0.0150214592, 0.0257510729, 0.0128755365, 0.0214592274,
          0.0150214592 ]
      - [ 0.0168776363, 0.0168776363, 0.035864979, 0.0105485227,
          0.0295358635, 0.0210970454, 0.00843881816, 0.0253164545,
          0.0295358635, 0.0168776363, 0.0189873409, 0.0168776363,
          0.0232067499, 0.0147679318, 0.00210970454, 0.0316455662,
          0.0295358635, 0.0168776363, 0.0189873409, 0.035864979,
          0.0189873409, 0.0147679318, 0.0168776363, 0.0147679318,
          0.0295358635, 0.0147679318, 0.0232067499, 0.0168776363,
          0.0295358635, 0.0126582272, 0.0168776363, 0.0189873409,
          0.0210970454, 0.0126582272, 0.0379746817, 0.0168776363,
          0.0189873409, 0.0189873409, 0.00843881816, 0.00421940908,
          0.00843881816, 0.0232067499, 0.035864979, 0.0126582272,
          0.0168776363, 0.0253164545, 0.0295358635, 0.0232067499,
          0.0126582272, 0.0253164545 ]
      - [ 0.0139037436, 0.0160427801, 0.0235294122, 0.02459893,
          0.0192513373, 0.0203208551, 0.0213903747, 0.0406417102,
          0.0267379694, 0.0117647061, 0.0320855603, 0.0149732623,
          0.0181818195, 0.00748663116, 0.0085561499, 0.0149732623,
          0.0256684497, 0.0278074872, 0.0235294122, 0.0278074872,
          0.0128342248, 0.0106951874, 0.0181818195, 0.0267379694,
          0.0181818195, 0.0149732623, 0.0352941193, 0.0085561499,
          0.00962566864, 0.0128342248, 0.0203208551, 0.02459893,
          0.0267379694, 0.0203208551, 0.0331550799, 0.0224598944,
          0.0235294122, 0.0128342248, 0.0256684497, 0.00534759369,
          0.0181818195, 0.0320855603, 0.0181818195, 0.0192513373,
          0.0203208551, 0.0342245996, 0.0213903747, 0.0106951874,
          0.00962566864, 0.0139037436 ]
      - [ 0.00584795326, 0.0214424953, 0.0253411308, 0.0253411308,
          0.0253411308, 0.0350877196, 0.00194931775, 0.0467836261,
          0.023391813, 0.00974658877, 0.0175438598, 0.023391813,
          0.0194931775, 0.0194931775, 0.00779727101, 0.0175438598,
          0.00779727101, 0.0331384018, 0.0214424953, 0.023391813,
          0.0175438598, 0.00974658877, 0.0136452243, 0.015594542,
          0.0194931775, 0.023391813, 0.0409356728, 0.0194931775,
          0.015594542, 0.00974658877, 0.0311890841, 0.0272904485,
          0.0214424953, 0.00779727101, 0.0214424953, 0.015594542,
          0.0214424953, 0.0175438598, 0.0272904485, 0.00779727101,
          0.0194931775, 0.0175438598, 0.0175438598, 0.00779727101,
          0.0506822616, 0.0253411308, 0.0272904485, 0.0116959065,
          0.00194931775, 0.0253411308 ]
      - [ 0.0239596479, 0.00630517025, 0.0126103405, 0.0176544767,
          0.0264817141, 0.0113493064, 0.0264817141, 0.0882723853,
          0.0176544767, 0.0176544767, 0.0327868834, 0.0138713745,
          0.0226986129, 0.0201765448, 0.0100882724, 0.0264817141,
          0.0214375779, 0.0163934417, 0.0151324086, 0.0214375779,
          0.00630517025, 0.0163934417, 0.0201765448, 0.0138713745,
          0.0151324086, 0.00882723834, 0.0592686012, 0.025220681,
          0.0100882724, 0.0113493064, 0.0214375779, 0.0214375779,
          0.0113493064, 0.0176544767, 0.0895334184, 0.0201765448,
          0.0201765448, 0.025220681, 0.00756620429, 0.0050441362,
          0.0163934417, 0.0126103405, 0.0126103405, 0.0100882724,
          0.0138713745, 0.0113493064, 0.00756620429, 0.0138713745,
          0.00882723834, 0.0176544767 ]
      - [ 0.0182315409, 0.0252202973, 0.0233971439, 0.023093285,
          0.00607718015, 0.0316013359, 0.00364630809, 0.0124582192,
          0.0358553641, 0.0173199642, 0.00303859008, 0.0212701298,
          0.00425402634, 0.023093285, 0.0255241562, 0.0194469765,
          0.00212701317, 0.0224855673, 0.0194469765, 0.0270434525,
          0.0151929501, 0.00881191157, 0.0136736557, 0.0139775146,
          0.0391978137, 0.0212701298, 0.00911577046, 0.0145852324,
          0.0237010028, 0.00364630809, 0.023093285, 0.0237010028,
          0.0367669389, 0.0227894261, 0.0115466425, 0.013065937,
          0.00729261618, 0.00972348824, 0.0355515033, 0.0194469765,
          0.0249164384, 0.0382862352, 0.0279550292, 0.0273473114,
          0.0252202973, 0.0334244892, 0.0221817084, 0.0167122446,
          0.0209662709, 0.0322090536 ]
      - [ 0.00326797389, 0.0228758175, 0.0424836613, 0., 0.0130718956,
          0.0130718956, 0.045751635, 0.0196078438, 0.0294117648,
          0.0196078438, 0.0163398702, 0.0163398702, 0.0261437912,
          0.035947714, 0.0424836613, 0.0196078438, 0.0294117648,
          0.00653594779, 0.0294117648, 0.0228758175, 0.0163398702,
          0.0294117648, 0.0294117648, 0.0294117648, 0.00326797389,
          0.0130718956, 0., 0.0424836613, 0.0228758175, 0.,
          0.00980392192, 0.0130718956, 0.0294117648, 0.0163398702,
          0.00653594779, 0.0392156877, 0.0130718956, 0.00980392192,
          0.0163398702, 0.00980392192, 0.0424836613, 0.00326797389,
          0.00653594779, 0.0228758175, 0.00980392192, 0.0196078438,
          0.0163398702, 0.0392156877, 0.0228758175, 0.0130718956 ]
      - [ 0.0196836554, 0.0228471011, 0.0144112483, 0.00913884025,
          0.0217926186, 0.0175746921, 0.0154657299, 0.0203866437,
          0.0274165217, 0.0274165217, 0.0137082608, 0.0196836554,
          0.0246045701, 0.0326889306, 0.0119507909, 0.0263620391,
          0.0312829539, 0.0101933219, 0.0133567667, 0.0161687173,
          0.0333919153, 0.0108963093, 0.0263620391, 0.0137082608,
          0.0179261863, 0.0228471011, 0.0214411262, 0.0246045701,
          0.0221441127, 0.0182776805, 0.0210896321, 0.0295254849,
          0.0253075585, 0.0221441127, 0.0312829539, 0.0123022851,
          0.0186291747, 0.0144112483, 0.0186291747, 0.00597539544,
          0.0340949036, 0.0203866437, 0.0126537792, 0.0133567667,
          0.0189806689, 0.0168717057, 0.0189806689, 0.0337434113,
          0.00702987704, 0.0168717057 ]
      - [ 0.00821018033, 0.0213464703, 0.0147783253, 0.0164203607,
          0.0262725782, 0.0229885057, 0.0197044332, 0.0377668329,
          0.0213464703, 0.0197044332, 0.00656814454, 0.0197044332,
          0.0131362891, 0.0131362891, 0.0180623978, 0.00656814454,
          0.0180623978, 0.00492610829, 0.0213464703, 0.0164203607,
          0.0147783253, 0.0114942528, 0.0509031191, 0.031198686,
          0.00985221658, 0.0147783253, 0.0180623978, 0.0525451563,
          0.0328407213, 0.0164203607, 0.0197044332, 0.0164203607,
          0.0262725782, 0.0131362891, 0.0492610857, 0.0164203607,
          0.0164203607, 0.0131362891, 0.00492610829, 0.0131362891,
          0.0246305428, 0.031198686, 0.00492610829, 0.0180623978,
          0.0131362891, 0.0344827585, 0.0180623978, 0.0229885057,
          0.0262725782, 0.0180623978 ]
      - [ 0.0147058833, 0.0318627469, 0.0269607846, 0.0122549022,
          0.0122549022, 0.0220588241, 0.0196078438, 0.0294117667,
          0.0318627469, 0.00735294167, 0., 0.0147058833, 0.0490196086,
          0.00735294167, 0.0367647074, 0.00980392192, 0.0171568636,
          0.00980392192, 0.00980392192, 0.0465686284, 0.0171568636,
          0.0343137272, 0.0196078438, 0.00980392192, 0.0147058833,
          0.00245098048, 0.0220588241, 0.0294117667, 0.0171568636,
          0.0220588241, 0.0196078438, 0.0220588241, 0.0196078438,
          0.0147058833, 0.0147058833, 0.0514705889, 0.0171568636,
          0.0245098043, 0.0147058833, 0.0122549022, 0.0269607846,
          0.0171568636, 0.0318627469, 0.0294117667, 0.0122549022,
          0.0196078438, 0.0147058833, 0.0171568636, 0.0147058833,
          0.00735294167 ]
      - [ 0.0207612459, 0.0103806229, 0.0415224917, 0.0138408309,
          0.00692041544, 0.0138408309, 0., 0.0484429076, 0.0103806229,
          0., 0.00692041544, 0.00692041544, 0.0207612459, 0.,
          0.0346020758, 0.0138408309, 0.0588235296, 0.0103806229,
          0.0173010379, 0.0242214538, 0.00692041544, 0.0207612459,
          0.0415224917, 0.0103806229, 0.0103806229, 0.00692041544,
          0.0588235296, 0.0553633235, 0.0242214538, 0.0380622856, 0., 0.,
          0.00692041544, 0.0173010379, 0.0346020758, 0.0207612459,
          0.0207612459, 0.0138408309, 0.0103806229, 0.0173010379,
          0.0138408309, 0., 0.0346020758, 0.0588235296, 0.,
          0.00692041544, 0.0103806229, 0.00692041544, 0.0657439455,
          0.0276816618 ]
      - [ 0.0159574468, 0.0132978717, 0.0531914867, 0.0212765951,
          0.0239361692, 0.0186170209, 0.00531914877, 0.0265957434,
          0.0292553175, 0.0106382975, 0.00265957438, 0.0186170209,
          0.0292553175, 0.0212765951, 0.0106382975, 0.0265957434,
          0.0159574468, 0.0319148935, 0.0292553175, 0.0265957434,
          0.00797872338, 0.0132978717, 0.0132978717, 0.0106382975,
          0.0265957434, 0.0106382975, 0.0212765951, 0.0106382975,
          0.0186170209, 0.0132978717, 0.0292553175, 0.0345744677,
          0.0425531901, 0.0159574468, 0.0106382975, 0.0239361692,
          0.00531914877, 0.0106382975, 0.0292553175, 0.00531914877,
          0.0265957434, 0.0292553175, 0.0345744677, 0.0159574468,
          0.0239361692, 0.0265957434, 0.00531914877, 0.0239361692,
          0.0132978717, 0.0159574468 ]
      - [ 0.00887573976, 0.00591715984, 0.0266272202, 0.0177514795,
          0.00591715984, 0.00887573976, 0.0207100585, 0.0236686394,
          0.0177514795, 0.041420117, 0.0118343197, 0.00591715984,
          0.0473372787, 0.0118343197, 0.0147928996, 0.0266272202,
          0.0266272202, 0.0295857992, 0.0325443782, 0.0325443782,
          0.0177514795, 0.0266272202, 0.0532544404, 0.00887573976,
          0.0118343197, 0.00887573976, 0.00887573976, 0.035502959,
          0.0207100585, 0.0147928996, 0.0177514795, 0.00591715984,
          0.0236686394, 0.0295857992, 0.0177514795, 0.0236686394,
          0.0266272202, 0.00887573976, 0.0207100585, 0.00887573976,
          0.0147928996, 0.0147928996, 0.0325443782, 0.0295857992,
          0.00591715984, 0.0118343197, 0.0236686394, 0.0207100585,
          0.0177514795, 0.0207100585 ]
      - [ 0.0132714007, 0.0238885209, 0.0199071001, 0.00995355006,
          0.0351692103, 0.0106171202, 0.0172528196, 0.0278699398,
          0.0159256794, 0.0218978096, 0.00796283968, 0.0212342404,
          0.0258792304, 0.0318513587, 0.0172528196, 0.01459854,
          0.0331785008, 0.0106171202, 0.0199071001, 0.0165892504,
          0.0258792304, 0.0205706712, 0.0265428014, 0.0192435309,
          0.0165892504, 0.0225613806, 0.0245520901, 0.0325149298,
          0.0159256794, 0.0311877914, 0.0278699398, 0.0218978096,
          0.0265428014, 0.0205706712, 0.0232249498, 0.0132714007,
          0.0119442604, 0.0172528196, 0.01459854, 0.0126078306,
          0.0325149298, 0.01459854, 0.0152621102, 0.0185799599,
          0.0139349699, 0.0053085601, 0.0252156612, 0.0298606511,
          0.0106171202, 0.0139349699 ]
      - [ 0.00800000038, 0.00800000038, 0.0240000002, 0.0320000015,
          0.00800000038, 0.00800000038, 0., 0., 0.0240000002,
          0.00800000038, 0.00800000038, 0.0320000015, 0., 0.00800000038,
          0., 0.00800000038, 0.00800000038, 0.0160000008, 0.0480000004,
          0.0400000028, 0.00800000038, 0., 0.0400000028, 0.0320000015,
          0., 0.0320000015, 0.00800000038, 0.064000003, 0.00800000038,
          0.00800000038, 0.0160000008, 0.0160000008, 0.0160000008,
          0.00800000038, 0.0720000044, 0.0160000008, 0.0160000008,
          0.00800000038, 0.0160000008, 0.00800000038, 0.0160000008,
          0.0320000015, 0.0400000028, 0.0480000004, 0.0320000015,
          0.0160000008, 0.0320000015, 0.0160000008, 0.0400000028,
          0.0480000004 ]
      - [ 0.0229990799, 0.0147194108, 0.0331186727, 0.0110395579,
          0.0183992628, 0.0110395579, 0.0312787481, 0.0340386368,
          0.0248390064, 0.0147194108, 0.0248390064, 0.0174793005,
          0.0321987122, 0.0257589687, 0.0211591534, 0.0220791157,
          0.0248390064, 0.0137994476, 0.0248390064, 0.0275988951,
          0.0220791157, 0.0331186727, 0.0091996314, 0.0183992628,
          0.0174793005, 0.0110395579, 0.0331186727, 0.015639374,
          0.015639374, 0.0128794843, 0.0091996314, 0.0211591534,
          0.0165593363, 0.0239190422, 0.015639374, 0.0147194108,
          0.0321987122, 0.0183992628, 0.0202391893, 0.015639374,
          0.0220791157, 0.0275988951, 0.0202391893, 0.0128794843,
          0.00643974217, 0.0211591534, 0.0220791157, 0.0211591534,
          0.0101195946, 0.0091996314 ]
      - [ 0.0167785231, 0.0234899335, 0.030201342, 0.0100671146,
          0.00671140943, 0.0134228189, 0.0100671146, 0.0268456377,
          0.0134228189, 0.0335570462, 0.0100671146, 0.00671140943,
          0.0167785231, 0.0201342292, 0.0234899335, 0.0369127505,
          0.0100671146, 0.0167785231, 0.0436241627, 0.0369127505,
          0.030201342, 0.0201342292, 0.030201342, 0.0134228189,
          0.0100671146, 0.0134228189, 0.0369127505, 0.0536912754,
          0.0268456377, 0.0201342292, 0.0100671146, 0.0201342292,
          0.00671140943, 0.0234899335, 0.0402684584, 0.0335570462,
          0.0100671146, 0.00671140943, 0.00671140943, 0.0234899335,
          0.0201342292, 0.0100671146, 0.0201342292, 0.0369127505,
          0.00671140943, 0.00671140943, 0.0100671146, 0.0201342292,
          0.0167785231, 0.0100671146 ]
      - [ 0.00198019808, 0.023762377, 0.0297029708, 0.0316831693,
          0.0396039635, 0.0138613861, 0.0158415847, 0.0257425755,
          0.0257425755, 0.00198019808, 0.00594059424, 0.0217821784,
          0.0158415847, 0.0138613861, 0.0217821784, 0.0138613861,
          0.00792079233, 0.0217821784, 0.0277227722, 0.0257425755, 0.,
